%YAML:1.0
---
opencv_ml_svm:
   format: 3
   svmType: C_SVC
   kernel:
      type: RBF
      gamma: 5.0624999999999998e-01
   C: 1.2500000000000000e+01
   term_criteria: { epsilon:1.1920928955078125e-07, iterations:1000 }
   var_count: 81
   class_count: 9
   class_labels: !!opencv-matrix
      rows: 9
      cols: 1
      dt: i
      data: [ 1, 2, 3, 4, 5, 6, 7, 8, 9 ]
   sv_total: 125
   support_vectors:
      - [ 4.07416642e-01, 4.07416642e-01, 4.07416642e-01, 0., 0., 0.,
          4.07416642e-01, 4.07416642e-01, 4.07416642e-01, 4.96428460e-01,
          8.46146047e-02, 4.60150018e-02, 0., 0., 0., 4.96428460e-01,
          4.96428460e-01, 4.96428460e-01, 7.04570413e-01, 0., 0., 0., 0.,
          0., 0., 1.13110505e-02, 7.04570413e-01, 3.74565899e-01,
          3.74565899e-01, 3.74565899e-01, 2.40314417e-02, 3.74565899e-01,
          1.16546504e-01, 3.74565899e-01, 3.74565899e-01, 3.74565899e-01,
          5.45846403e-01, 7.70528615e-03, 8.55689123e-03, 7.66216498e-03,
          5.45846403e-01, 1.23980217e-01, 2.39576057e-01, 1.66568786e-01,
          5.45846403e-01, 5.35663068e-01, 0., 0., 1.16714565e-02,
          5.35663068e-01, 3.42989028e-01, 7.95402229e-02, 9.86981690e-02,
          5.35663068e-01, 3.04086298e-01, 2.42016435e-01, 8.93982723e-02,
          1.35433495e-01, 6.86659813e-01, 5.68635106e-01, 1.79148018e-02,
          6.13825656e-02, 1.29746810e-01, 4.46810901e-01, 0., 0.,
          2.75173690e-02, 7.50710666e-01, 3.86110187e-01, 2.82650068e-03,
          1.56527050e-02, 2.81441778e-01, 3.10247600e-01, 0., 0.,
          2.89072059e-02, 6.48702621e-01, 6.48702621e-01, 5.00834137e-02,
          2.67979410e-02, 2.27107450e-01 ]
      - [ 4.06491816e-01, 4.03720051e-01, 2.20691115e-02, 5.46816317e-03,
          4.06491816e-01, 7.90847912e-02, 4.06491816e-01, 4.06491816e-01,
          4.06491816e-01, 5.59660852e-01, 3.01796943e-02, 1.56105834e-03,
          1.05412733e-02, 5.59660852e-01, 0., 2.63020247e-02,
          2.30291709e-01, 5.59660852e-01, 2.03162789e-01, 5.13598979e-01,
          5.13598979e-01, 1.68839812e-01, 5.13598979e-01, 0.,
          6.19605631e-02, 8.56412426e-02, 3.50090653e-01, 4.00331318e-01,
          4.00331318e-01, 4.00331318e-01, 2.25751504e-01, 4.00331318e-01,
          4.23777215e-02, 2.93075889e-01, 2.36689523e-01, 4.00331318e-01,
          5.65093160e-01, 1.33240921e-02, 1.15549201e-02, 3.52292471e-02,
          5.65093160e-01, 7.68527165e-02, 1.12591811e-01, 1.27400130e-01,
          5.65093160e-01, 3.72971267e-01, 3.26900989e-01, 3.72971267e-01,
          2.80051623e-02, 3.72971267e-01, 2.66106427e-01, 3.72971267e-01,
          3.49678129e-01, 3.72971267e-01, 4.35362190e-01, 3.78996730e-02,
          1.31313279e-01, 1.73523456e-01, 4.35362190e-01, 4.42428291e-02,
          4.35362190e-01, 4.32137400e-01, 4.35362190e-01, 5.73367357e-01,
          7.18650932e-04, 8.49144161e-03, 3.75136100e-02, 5.73367357e-01,
          6.73730522e-02, 4.22027484e-02, 1.49705512e-02, 5.73367357e-01,
          4.39857632e-01, 4.39857632e-01, 4.39857632e-01, 1.49912667e-02,
          4.09024388e-01, 1.54729918e-01, 1.66045830e-01, 5.16633019e-02,
          4.39857632e-01 ]
      - [ 4.07416642e-01, 4.07416642e-01, 4.07416642e-01, 0., 0., 0.,
          4.07416642e-01, 4.07416642e-01, 4.07416642e-01, 4.93006200e-01,
          1.46897554e-01, 3.57314423e-02, 0., 0., 0., 4.93006200e-01,
          4.93006200e-01, 4.93006200e-01, 6.88990891e-01, 8.97264257e-02,
          0., 0., 0., 0., 4.23117131e-02, 1.84021294e-01, 6.88990891e-01,
          3.76006752e-01, 3.76006752e-01, 3.76006752e-01, 3.86600718e-02,
          3.76006752e-01, 7.36584812e-02, 3.76006752e-01, 3.76006752e-01,
          3.75548661e-01, 5.10369718e-01, 1.87746715e-02, 1.07719731e-02,
          0., 5.10369718e-01, 1.41072139e-01, 2.38978520e-01,
          3.68768871e-01, 5.10369718e-01, 4.99555439e-01, 3.11122257e-02,
          0., 0., 4.99555439e-01, 3.02137762e-01, 3.37737888e-01,
          2.00054199e-01, 4.99555439e-01, 1.61759883e-01, 2.49857903e-01,
          1.85911953e-01, 2.29131073e-01, 7.60758758e-01, 4.81592745e-01,
          8.42100848e-03, 3.08040623e-02, 7.10093006e-02, 3.23575705e-01,
          2.28040750e-04, 1.22776080e-04, 0., 7.42463768e-01,
          5.23970604e-01, 2.37470539e-03, 1.63986571e-02, 2.48627543e-01,
          2.54007041e-01, 4.13036207e-04, 1.23910874e-03, 0.,
          6.63060009e-01, 6.63060009e-01, 1.82666540e-01, 3.35980803e-02,
          1.22744419e-01 ]
      - [ 4.07409579e-01, 4.07409579e-01, 4.07409579e-01, 0.,
          5.84211713e-03, 7.51009036e-04, 4.07409579e-01, 4.07409579e-01,
          4.07409579e-01, 4.92876738e-01, 1.47807986e-01, 3.68943252e-02,
          0., 1.25815850e-02, 8.86744645e-04, 4.92876738e-01,
          4.92876738e-01, 4.92876738e-01, 6.83676720e-01, 1.55293614e-01,
          0., 0., 8.50067940e-03, 0., 3.88338044e-02, 1.80695191e-01,
          6.83676720e-01, 3.76073211e-01, 3.76073211e-01, 3.76073211e-01,
          4.12053429e-02, 3.76073211e-01, 6.91204220e-02, 3.76073211e-01,
          3.76073211e-01, 3.75740558e-01, 5.10858953e-01, 1.83299668e-02,
          1.10281417e-02, 0., 5.10858953e-01, 1.33993626e-01,
          2.40002930e-01, 3.68719518e-01, 5.10858953e-01, 4.95766938e-01,
          8.68629217e-02, 0., 0., 4.95766938e-01, 2.86638469e-01,
          3.39867353e-01, 2.29079649e-01, 4.95766938e-01, 1.63202092e-01,
          2.48197317e-01, 1.81016251e-01, 2.35991403e-01, 7.72984445e-01,
          4.60269928e-01, 8.67191050e-03, 3.14481966e-02, 7.19164088e-02,
          3.28302622e-01, 4.41327080e-04, 1.23963240e-04, 0.,
          7.52649486e-01, 5.01676440e-01, 2.47890153e-03, 1.65189523e-02,
          2.57420599e-01, 2.38661528e-01, 4.72354330e-03, 0., 0.,
          6.66330814e-01, 6.66330814e-01, 1.88725412e-01, 3.86912078e-02,
          1.06105015e-01 ]
      - [ 4.07412827e-01, 4.07412827e-01, 4.07412827e-01, 1.34867907e-03,
          3.67288454e-03, 1.84872712e-03, 4.07412827e-01, 4.07412827e-01,
          4.07412827e-01, 4.93625551e-01, 1.15800232e-01, 5.15003689e-02,
          7.41714286e-03, 5.36739640e-02, 3.75151485e-02, 4.93625551e-01,
          4.93625551e-01, 4.93625551e-01, 6.91021204e-01, 1.60427205e-02,
          4.67314832e-02, 1.46073615e-02, 6.43999949e-02, 6.46768808e-02,
          8.11888576e-02, 1.43193558e-01, 6.91021204e-01, 3.83578986e-01,
          3.83578986e-01, 3.83578986e-01, 3.80771086e-02, 3.83578986e-01,
          7.36580342e-02, 3.83578986e-01, 3.83578986e-01, 3.26336354e-01,
          5.29476702e-01, 1.70393717e-02, 1.46603398e-02, 1.32719200e-04,
          5.29476702e-01, 1.37054890e-01, 2.32164159e-01, 2.83700496e-01,
          5.29476702e-01, 4.88341153e-01, 5.66005299e-04, 1.28429709e-03,
          3.93828086e-04, 4.88341153e-01, 2.91623920e-01, 3.61461163e-01,
          2.52963632e-01, 4.88341153e-01, 1.84094757e-01, 1.98670000e-01,
          2.01841876e-01, 2.06899822e-01, 7.81290054e-01, 4.72811043e-01,
          4.89929691e-03, 1.07321590e-02, 3.45017947e-02, 1.63836718e-01,
          4.99331276e-04, 7.98816327e-04, 5.17742883e-04, 8.05270791e-01,
          5.51831365e-01, 1.43813819e-03, 3.85429012e-03, 1.10109456e-01,
          6.70707226e-02, 8.84057314e-04, 2.65217177e-03, 0.,
          6.86650634e-01, 6.86650634e-01, 1.98915675e-01, 4.09216173e-02,
          6.64733723e-02 ]
      - [ 4.19965655e-01, 4.19965655e-01, 3.37561578e-01, 4.37277340e-04,
          9.11193143e-04, 4.23571561e-04, 4.19965655e-01, 4.19965655e-01,
          4.19965655e-01, 4.97002989e-01, 7.56939054e-02, 1.73922107e-02,
          2.78647197e-03, 2.83949412e-02, 1.19293993e-02, 4.97002989e-01,
          4.97002989e-01, 4.97002989e-01, 7.01474488e-01, 6.58971909e-03,
          2.05583572e-02, 5.53648127e-03, 4.49970663e-02, 9.13988519e-03,
          2.40387637e-02, 7.53782839e-02, 7.01474488e-01, 3.74697089e-01,
          3.74697089e-01, 3.74697089e-01, 3.53451632e-02, 3.74697089e-01,
          1.10553131e-01, 3.74697089e-01, 3.74697089e-01, 3.74697089e-01,
          5.21666229e-01, 9.61427763e-03, 5.15927421e-03, 0.,
          5.21666229e-01, 1.93046853e-01, 2.23052993e-01, 3.02067310e-01,
          5.21666229e-01, 4.86793607e-01, 9.96959934e-05, 2.99087958e-04,
          0., 4.86793607e-01, 4.24019307e-01, 2.45947227e-01,
          2.09645882e-01, 4.86793607e-01, 1.09481245e-01, 2.63612926e-01,
          1.84082374e-01, 2.01724097e-01, 6.93707883e-01, 5.92879415e-01,
          2.91104871e-03, 1.98677778e-02, 6.22755624e-02, 2.53597558e-01,
          1.38817937e-03, 1.35002483e-03, 0., 7.12907016e-01,
          6.18344009e-01, 6.31049043e-04, 8.62007309e-03, 1.94699213e-01,
          1.93495646e-01, 2.52754102e-03, 0., 0., 6.76114798e-01,
          6.76114798e-01, 1.45085916e-01, 4.70148362e-02, 1.35205418e-01 ]
      - [ 4.33125556e-01, 4.33125556e-01, 3.97168584e-02, 0., 0.,
          2.36870080e-01, 4.33125556e-01, 4.33125556e-01, 4.33125556e-01,
          6.69948578e-01, 0., 0., 0., 0., 0., 2.83532560e-01,
          1.23526581e-01, 6.69948578e-01, 6.97766483e-01, 7.08059743e-02,
          1.18864238e-01, 1.15874298e-02, 0., 0., 0., 1.42559246e-03,
          6.97766483e-01, 4.08799380e-01, 4.08799380e-01, 9.41213891e-02,
          3.39379758e-02, 4.08799380e-01, 3.23416620e-01, 4.08799380e-01,
          2.13828504e-01, 4.08799380e-01, 5.66493094e-01, 0., 0., 0.,
          5.66493094e-01, 1.77461937e-01, 8.99770297e-03, 5.12999017e-03,
          5.66493094e-01, 5.36837339e-01, 7.03775906e-04, 6.36231969e-04,
          1.06550020e-03, 5.36837339e-01, 3.44223589e-01, 7.12388828e-02,
          8.05541500e-02, 5.36837339e-01, 3.60527217e-01, 5.11482581e-02,
          7.53869340e-02, 1.19585790e-01, 7.48645425e-01, 4.24991161e-01,
          2.93511879e-02, 2.21122373e-02, 3.12265694e-01, 4.25323963e-01,
          0., 0., 0., 7.25681126e-01, 4.64030653e-01, 0., 0.,
          2.64420718e-01, 2.87805796e-01, 0., 5.53781923e-04,
          8.59147124e-03, 6.83082640e-01, 6.31042361e-01, 3.70214246e-02,
          2.16206294e-02, 2.08854705e-01 ]
      - [ 4.42300409e-01, 4.42300409e-01, 6.02898300e-02, 0.,
          6.28451537e-03, 1.17299438e-01, 4.42300409e-01, 4.42300409e-01,
          4.42300409e-01, 6.04944944e-01, 1.83694318e-01, 3.15464377e-01,
          0., 2.10384727e-02, 0., 3.15977484e-01, 1.68811217e-01,
          6.04944944e-01, 7.01948941e-01, 8.40089843e-03, 4.95683681e-03,
          0., 0., 0., 6.73756897e-02, 5.37921861e-02, 7.01948941e-01,
          4.11352396e-01, 4.11352396e-01, 1.48295209e-01, 3.48531716e-02,
          4.11352396e-01, 2.68957675e-01, 4.11352396e-01, 2.33006999e-01,
          4.11352396e-01, 5.61641216e-01, 1.12308876e-03, 1.48862705e-03,
          7.30722863e-03, 5.61641216e-01, 2.18719080e-01, 1.11521753e-02,
          7.05065997e-03, 5.61641216e-01, 5.38750589e-01, 2.65910712e-05,
          2.04082532e-03, 2.44975416e-03, 5.38750589e-01, 3.43981117e-01,
          5.28505333e-02, 5.23162447e-02, 5.38750589e-01, 3.16518784e-01,
          7.54976273e-02, 1.18122339e-01, 1.06686033e-01, 7.33031452e-01,
          4.96026695e-01, 4.97843586e-02, 2.47764345e-02, 2.73851186e-01,
          4.39754248e-01, 6.95589697e-04, 2.68440275e-03, 1.07281245e-02,
          7.13415921e-01, 4.70783800e-01, 8.69257055e-05, 1.07043716e-05,
          2.62245059e-01, 2.89542109e-01, 4.77308531e-05, 1.43938640e-03,
          2.51636142e-03, 7.25799799e-01, 5.89460075e-01, 3.39553542e-02,
          1.39470203e-02, 1.82527274e-01 ]
      - [ 4.40811604e-01, 4.40811604e-01, 3.19855660e-02, 0., 0.,
          1.51654735e-01, 4.40811604e-01, 4.40811604e-01, 4.40811604e-01,
          6.79647148e-01, 0., 0., 0., 0., 0., 2.33493894e-01,
          1.21881463e-01, 6.79647148e-01, 7.03894794e-01, 1.82900205e-02,
          4.06914875e-02, 3.85922566e-03, 1.75594795e-03, 0., 0.,
          5.41046448e-03, 7.03894794e-01, 4.08209473e-01, 4.08209473e-01,
          7.71909803e-02, 3.70320193e-02, 4.08209473e-01, 2.86993325e-01,
          4.08209473e-01, 2.70281941e-01, 4.08209473e-01, 5.67749441e-01,
          0., 0., 0., 5.67749441e-01, 1.64918318e-01, 8.50559026e-03,
          6.47678459e-03, 5.67749441e-01, 5.42053223e-01, 1.06581960e-04,
          3.35844845e-04, 1.87509460e-04, 5.42053223e-01, 3.17716926e-01,
          6.67948350e-02, 8.78399387e-02, 5.42053223e-01, 4.02280420e-01,
          5.72094657e-02, 6.64931238e-02, 1.26239687e-01, 7.50817358e-01,
          4.04488087e-01, 4.26047444e-02, 2.12180056e-02, 2.78285861e-01,
          4.26926345e-01, 0., 0., 0., 7.41573572e-01, 4.32815164e-01, 0.,
          0., 2.70317823e-01, 2.94888586e-01, 0., 0., 6.81370322e-04,
          7.14590311e-01, 5.83952427e-01, 3.81063893e-02, 2.50600278e-02,
          2.28445157e-01 ]
      - [ 5.07601917e-01, 5.07601917e-01, 3.46318260e-02, 0., 0.,
          2.75679916e-01, 3.45036447e-01, 1.61011681e-01, 5.07382989e-01,
          4.26256657e-01, 2.95411199e-01, 7.25636317e-04, 0., 0.,
          4.26256657e-01, 4.26256657e-01, 4.26256657e-01, 4.26256657e-01,
          6.91891372e-01, 0., 0., 0., 0., 0., 3.94044816e-02,
          1.84697241e-01, 6.91891372e-01, 4.51514006e-01, 4.51514006e-01,
          1.05854325e-01, 1.03239104e-01, 4.51514006e-01, 3.39076757e-01,
          4.00167704e-01, 1.73372835e-01, 2.38466874e-01, 4.59491163e-01,
          6.90093413e-02, 1.15382799e-03, 0., 4.59491163e-01,
          4.48878437e-01, 3.68489385e-01, 1.41329363e-01, 4.59491163e-01,
          4.54262704e-01, 0., 0., 0., 4.54262704e-01, 4.32865918e-01,
          3.56966048e-01, 2.48195916e-01, 4.54262704e-01, 1.08705185e-01,
          2.91692942e-01, 1.56412885e-01, 4.72523510e-01, 6.81679785e-01,
          4.25519168e-01, 1.01533700e-02, 2.13905778e-02, 4.72799689e-02,
          2.22678825e-01, 2.04489872e-04, 4.84968814e-06, 0.,
          7.28199840e-01, 6.33510709e-01, 2.65654433e-03, 9.01069306e-03,
          1.06987357e-01, 8.67577940e-02, 0., 0., 0., 6.86176062e-01,
          6.86176062e-01, 1.94585979e-01, 3.34499031e-02, 7.04649016e-02 ]
      - [ 4.45122868e-01, 4.45122868e-01, 1.63634270e-02, 0.,
          1.25044971e-04, 3.03571731e-01, 4.16345358e-01, 3.67945045e-01,
          4.45122868e-01, 4.45728511e-01, 4.54840437e-02, 2.90008890e-03,
          0., 1.00489790e-02, 4.45728511e-01, 4.45728511e-01,
          4.45728511e-01, 4.45728511e-01, 7.03029752e-01, 6.54009543e-03,
          1.96202863e-02, 0., 3.46502401e-02, 0., 1.88531876e-02,
          4.99679223e-02, 7.03029752e-01, 4.24475729e-01, 4.24475729e-01,
          5.78655116e-02, 1.38397366e-02, 2.66911000e-01, 4.24475729e-01,
          4.24475729e-01, 1.41704008e-01, 4.24475729e-01, 5.20060301e-01,
          3.89988464e-03, 7.11582834e-04, 2.44934508e-03, 5.20060301e-01,
          3.20525467e-01, 2.70590365e-01, 8.62581730e-02, 5.20060301e-01,
          5.42192638e-01, 2.09438993e-04, 6.28316950e-04, 2.74706655e-03,
          5.42192638e-01, 2.62827456e-01, 1.54534355e-01, 1.40355945e-01,
          5.42192638e-01, 2.90336370e-01, 1.40039757e-01, 1.13032736e-01,
          1.31502897e-01, 6.72098875e-01, 6.18445694e-01, 8.80528688e-02,
          1.81870405e-02, 1.30531862e-01, 3.69894356e-01, 4.71185886e-05,
          4.67753911e-04, 3.53140268e-03, 6.75565481e-01, 6.02988183e-01,
          4.56152344e-03, 1.64627342e-03, 1.90825269e-01, 2.29934350e-01,
          0., 0., 3.19387857e-03, 6.76874697e-01, 6.76874697e-01,
          8.98547620e-02, 2.26505436e-02, 1.24326184e-01 ]
      - [ 4.61998850e-01, 4.61998850e-01, 9.25018489e-02, 5.66530367e-03,
          4.61998850e-01, 2.68279701e-01, 3.03445488e-01, 1.89357191e-01,
          3.82829756e-01, 4.11494225e-01, 2.51496762e-01, 1.04878619e-02,
          1.00967001e-04, 4.11494225e-01, 2.93072015e-01, 4.11494225e-01,
          4.11494225e-01, 4.11494225e-01, 4.59795386e-01, 3.14037293e-01,
          4.59795386e-01, 7.88191780e-02, 4.59795386e-01, 5.33748418e-02,
          1.17709607e-01, 1.67999581e-01, 4.59795386e-01, 4.29528087e-01,
          4.29528087e-01, 4.29528087e-01, 3.75360072e-01, 4.29528087e-01,
          2.02185825e-01, 2.37956449e-01, 6.93181008e-02, 1.20537288e-01,
          5.49694717e-01, 7.97455609e-02, 5.91258099e-03, 1.91289447e-02,
          5.49694717e-01, 1.98441461e-01, 1.88197091e-01, 8.03771168e-02,
          5.49694717e-01, 4.45412487e-01, 1.00003958e-01, 1.18620895e-01,
          6.08740449e-02, 4.45412487e-01, 4.45412487e-01, 3.37403297e-01,
          2.45689735e-01, 4.45412487e-01, 2.59890649e-02, 3.36603224e-02,
          4.82096314e-01, 5.92249870e-01, 6.33096397e-01, 8.81875977e-02,
          0., 0., 1.02930954e-02, 1.59337781e-02, 1.85570132e-03,
          3.70722148e-03, 2.47771982e-02, 9.82709229e-01, 1.51492015e-01,
          1.76429655e-02, 1.02394102e-02, 1.51196234e-02, 2.99197100e-02,
          2.12753534e-01, 6.07946336e-01, 1.32615894e-01, 6.07946336e-01,
          4.16204959e-01, 1.29297033e-01, 1.81856118e-02, 2.66667102e-02 ]
      - [ 4.59597260e-01, 4.59597260e-01, 2.17955001e-02, 6.32508600e-04,
          0., 2.47170135e-01, 3.80363137e-01, 3.94304246e-01,
          4.59597260e-01, 4.61595505e-01, 7.29403570e-02, 3.47729743e-04,
          1.82966425e-04, 0., 3.71197194e-01, 4.61595505e-01,
          4.61595505e-01, 4.61595505e-01, 7.04590261e-01, 0., 0., 0., 0.,
          0., 0., 8.45493190e-03, 7.04590261e-01, 4.23413992e-01,
          4.23413992e-01, 1.08172707e-01, 1.61181558e-02, 2.95611084e-01,
          4.23413992e-01, 4.23413992e-01, 1.71685308e-01, 3.87078583e-01,
          5.09706318e-01, 1.15141012e-02, 6.00566971e-04, 7.45792117e-04,
          5.09706318e-01, 3.23773444e-01, 3.17457736e-01, 9.88218784e-02,
          5.09706318e-01, 5.45853972e-01, 0., 0., 3.11453198e-03,
          5.45853972e-01, 2.56730407e-01, 1.42548203e-01, 1.20162956e-01,
          5.45853972e-01, 3.19981128e-01, 2.48956263e-01, 1.99890241e-01,
          1.45586029e-01, 6.08413398e-01, 6.08413398e-01, 8.82538781e-02,
          5.96192516e-02, 1.29343435e-01, 3.85259509e-01, 5.35481935e-03,
          1.18639029e-03, 1.24583323e-03, 6.58369184e-01, 6.18871629e-01,
          6.01753499e-03, 2.36502499e-03, 1.68751076e-01, 2.32419610e-01,
          0., 0., 9.75047424e-03, 6.76268876e-01, 6.76268876e-01,
          8.60240012e-02, 2.06161495e-02, 1.28959596e-01 ]
      - [ 4.74270672e-01, 4.74270672e-01, 6.22614846e-02, 0., 0.,
          4.35636528e-02, 4.32263464e-01, 3.57545644e-01, 4.74270672e-01,
          4.82337296e-01, 2.46055260e-01, 3.22873192e-03, 0., 0.,
          6.34963810e-02, 4.82337296e-01, 4.82337296e-01, 4.82337296e-01,
          7.03478336e-01, 0., 0., 0., 0., 0., 0., 5.66943064e-02,
          7.03478336e-01, 4.46845978e-01, 4.46845978e-01, 1.00774698e-01,
          8.13515112e-02, 4.46845978e-01, 2.35194907e-01, 4.46845978e-01,
          2.39952996e-01, 2.59197921e-01, 4.97102261e-01, 6.38263822e-02,
          4.74692835e-03, 2.91837584e-02, 4.97102261e-01, 1.66231036e-01,
          4.21411991e-01, 2.08648890e-01, 4.97102261e-01, 5.04815638e-01,
          0., 0., 3.56435287e-03, 5.04815638e-01, 3.59684169e-01,
          1.35212138e-01, 2.87704885e-01, 5.04815638e-01, 2.48859748e-01,
          2.71135330e-01, 1.73271269e-01, 3.14174265e-01, 6.15681469e-01,
          5.85244238e-01, 6.43659830e-02, 4.19834629e-02, 4.68907431e-02,
          3.84986401e-01, 9.94533952e-03, 1.42609822e-02, 1.06765904e-01,
          7.62407660e-01, 4.47015107e-01, 7.26987123e-02, 3.20371017e-02,
          2.12309614e-01, 2.12070391e-01, 0., 0., 1.60741322e-02,
          6.68559253e-01, 6.68559253e-01, 1.00904293e-01, 8.24604556e-02,
          1.92792565e-01 ]
      - [ 4.17078257e-01, 4.17078257e-01, 1.90394089e-01, 1.19973063e-01,
          1.75910100e-01, 2.81995326e-01, 4.17078257e-01, 3.72702867e-01,
          4.17078257e-01, 4.57959890e-01, 2.85871774e-01, 2.48858426e-03,
          0., 9.11869854e-03, 2.73321331e-01, 4.57959890e-01,
          4.57959890e-01, 4.57959890e-01, 7.03671634e-01, 0., 0., 0., 0.,
          0., 6.70728879e-03, 5.12174703e-02, 7.03671634e-01,
          4.15960461e-01, 4.15960461e-01, 1.22956082e-01, 4.12977897e-02,
          4.15960461e-01, 4.15960461e-01, 4.15960461e-01, 1.49034381e-01,
          3.02810490e-01, 4.72658783e-01, 5.19907959e-02, 2.95628328e-03,
          7.41969515e-03, 4.72658783e-01, 3.79524589e-01, 4.09499139e-01,
          1.02784730e-01, 4.72658783e-01, 4.96720642e-01, 0., 0.,
          6.79285219e-03, 4.96720642e-01, 4.48146433e-01, 1.65873215e-01,
          1.62633061e-01, 4.96720642e-01, 3.37324440e-01, 3.08735609e-01,
          1.68844268e-01, 2.07961380e-01, 6.23407304e-01, 5.43601751e-01,
          8.75517428e-02, 4.54599708e-02, 1.37994662e-01, 5.29336751e-01,
          1.03460567e-03, 3.10381735e-03, 8.20915494e-03, 5.76749504e-01,
          5.76749504e-01, 1.60318557e-02, 9.49728396e-03, 2.19859675e-01,
          4.16425198e-01, 0., 0., 5.72796911e-03, 6.21459007e-01,
          6.21459007e-01, 1.02276467e-01, 4.66080047e-02, 1.87875152e-01 ]
      - [ 4.69200134e-01, 4.69200134e-01, 1.13496020e-01, 0., 0.,
          5.10753766e-02, 4.69200134e-01, 3.15005332e-01, 4.69200134e-01,
          4.93280262e-01, 1.23652577e-01, 4.28148173e-03, 0., 0.,
          8.03942904e-02, 4.93280262e-01, 4.93280262e-01, 4.93280262e-01,
          6.96834683e-01, 2.87551321e-02, 0., 0., 0., 0., 2.62303594e-02,
          1.42729834e-01, 6.96834683e-01, 3.97110909e-01, 3.97110909e-01,
          2.61175334e-01, 8.76556337e-02, 3.97110909e-01, 3.01376611e-01,
          3.97110909e-01, 2.47137919e-01, 3.70733827e-01, 5.11491954e-01,
          2.64038909e-02, 5.46278292e-03, 8.13743696e-02, 5.11491954e-01,
          1.77501947e-01, 3.57980669e-01, 2.07397580e-01, 5.11491954e-01,
          4.98220682e-01, 2.05184668e-02, 0., 2.21546018e-03,
          4.98220682e-01, 4.19940412e-01, 2.15648085e-01, 1.64537609e-01,
          4.98220682e-01, 2.57582128e-01, 2.14291811e-01, 1.62318006e-01,
          2.77790815e-01, 6.19991243e-01, 6.19991243e-01, 1.98663324e-02,
          3.34675051e-02, 8.79341960e-02, 4.18279380e-01, 2.14850367e-03,
          6.95972180e-04, 1.80439353e-01, 7.62997806e-01, 3.46898884e-01,
          5.22909546e-03, 1.66110285e-02, 2.86453664e-01, 2.83357233e-01,
          2.02925457e-03, 0., 1.17197621e-03, 6.66156888e-01,
          6.66156888e-01, 1.12662673e-01, 2.75003742e-02, 1.09879538e-01 ]
      - [ 3.64618063e-01, 3.64618063e-01, 2.31292248e-01, 1.10619716e-01,
          3.64618063e-01, 3.64618063e-01, 3.64618063e-01, 3.64618063e-01,
          3.64618063e-01, 4.85238373e-01, 2.00029567e-01, 0., 0., 0.,
          1.15397334e-01, 4.85238373e-01, 4.85238373e-01, 4.85238373e-01,
          6.46339715e-01, 2.25245714e-01, 0., 0., 0., 0., 7.93480799e-02,
          3.17813188e-01, 6.46339715e-01, 4.30561751e-01, 4.30561751e-01,
          1.75412446e-01, 1.87662672e-02, 3.60545784e-01, 3.91992271e-01,
          4.30561751e-01, 2.01555833e-01, 2.90088236e-01, 4.62245226e-01,
          1.56296700e-01, 5.29062143e-03, 0., 4.62245226e-01,
          4.62245226e-01, 3.35936725e-01, 1.17366396e-01, 4.50872481e-01,
          4.71380532e-01, 1.53862000e-01, 0., 2.68856157e-03,
          4.71380532e-01, 4.71380532e-01, 2.05302790e-01, 2.01651886e-01,
          4.71380532e-01, 3.18855643e-01, 4.97554958e-01, 1.75205320e-01,
          1.91393748e-01, 5.34677446e-01, 5.34677446e-01, 5.66732138e-02,
          2.31472328e-02, 5.09374440e-02, 4.15187925e-01, 3.01428046e-02,
          1.78199855e-03, 0., 6.36045635e-01, 6.36045635e-01,
          2.25692485e-02, 1.28644984e-02, 1.02830008e-01, 1.24475196e-01,
          7.75314867e-04, 0., 1.10538397e-03, 6.97225034e-01,
          6.97225034e-01, 6.13156110e-02, 1.33864232e-03, 3.92067246e-02 ]
      - [ 4.40901756e-01, 4.40901756e-01, 1.51430834e-02, 0., 0.,
          2.76544988e-01, 4.40901756e-01, 3.75914991e-01, 4.40901756e-01,
          4.56934184e-01, 1.69668108e-01, 0., 0., 0., 3.62619996e-01,
          4.56934184e-01, 4.56934184e-01, 4.56934184e-01, 7.04615593e-01,
          0., 0., 0., 0., 0., 0., 0., 7.04615593e-01, 4.02046502e-01,
          4.02046502e-01, 4.84575182e-02, 1.40480679e-02, 4.02046502e-01,
          4.02046502e-01, 4.02046502e-01, 1.53589621e-01, 4.02046502e-01,
          5.35749137e-01, 1.64935123e-02, 6.27879403e-04, 2.54378538e-03,
          5.35749137e-01, 2.50555664e-01, 2.56287724e-01, 6.94839507e-02,
          5.35749137e-01, 5.61702311e-01, 0., 0., 1.88121013e-03,
          5.61702311e-01, 2.18729660e-01, 4.04561171e-03, 0.,
          5.61702311e-01, 3.86547476e-01, 2.01794624e-01, 4.59099002e-02,
          2.04744097e-02, 7.00541437e-01, 5.22649825e-01, 7.13780671e-02,
          3.73316035e-02, 1.73004359e-01, 5.08133769e-01, 2.94492231e-03,
          7.38644914e-04, 2.99253943e-03, 6.81032777e-01, 4.07406688e-01,
          6.43069623e-03, 2.21270160e-03, 3.24270517e-01, 4.13358212e-01,
          0., 0., 1.29008351e-03, 7.15991855e-01, 4.73956317e-01,
          2.77437246e-03, 0., 2.91032195e-01 ]
      - [ 5.72563708e-01, 3.43953639e-01, 2.77477149e-02, 4.79625975e-04,
          0., 0., 9.09445956e-02, 4.59651053e-01, 5.72563708e-01,
          7.04614520e-01, 0., 0., 0., 0., 0., 1.51952193e-03,
          9.78922006e-04, 7.04614520e-01, 5.94267666e-01, 4.60342020e-01,
          0., 0., 1.36363897e-02, 4.72232103e-02, 2.68155485e-01,
          3.89877111e-02, 5.94267666e-01, 5.52888691e-01, 2.08436295e-01,
          6.67753965e-02, 1.44086927e-01, 5.52888691e-01, 2.56314818e-02,
          7.61188241e-03, 8.96689221e-02, 5.52888691e-01, 5.73969007e-01,
          0., 0., 1.02337655e-02, 5.73969007e-01, 7.64375106e-02,
          6.30642899e-05, 5.21885704e-05, 5.73969007e-01, 4.66319323e-01,
          9.85533968e-02, 0., 4.53542352e-01, 4.66319323e-01,
          6.40321150e-02, 3.05927187e-01, 1.72847405e-01, 4.66319323e-01,
          2.63057009e-05, 1.87382859e-03, 2.64945813e-02, 2.14652315e-01,
          9.69345689e-01, 6.25934824e-02, 0., 0., 2.63057009e-05, 0., 0.,
          0., 1.77415982e-02, 9.84348118e-01, 1.44653797e-01, 0., 0., 0.,
          4.30302136e-03, 0., 0., 6.95161104e-01, 6.95161104e-01,
          4.15037759e-02, 1.07406437e-01, 1.15182377e-01, 4.30302136e-03 ]
      - [ 6.59537494e-01, 1.44302085e-01, 5.49629740e-02, 7.45161902e-03,
          1.84721649e-02, 2.03552446e-03, 1.47674054e-01, 2.78178900e-01,
          6.59537494e-01, 7.04579234e-01, 9.05797177e-04, 2.97542848e-03,
          1.81020715e-03, 7.11496966e-03, 4.04401030e-03, 4.52085817e-03,
          1.63045397e-03, 7.04579234e-01, 5.60965300e-01, 5.60965300e-01,
          6.05301224e-02, 1.10858266e-04, 1.37511929e-02, 5.98868541e-02,
          1.76170647e-01, 1.08978860e-01, 5.60965300e-01, 5.71659982e-01,
          3.32134329e-02, 2.24289838e-02, 8.29129592e-02, 5.71659982e-01,
          7.13435337e-02, 9.29792598e-03, 1.57827493e-02, 5.71659982e-01,
          5.73341966e-01, 0., 0., 3.00636981e-02, 5.73341966e-01,
          8.48999247e-02, 1.83096217e-05, 3.66889144e-05, 5.73341966e-01,
          4.72669095e-01, 1.78401232e-01, 7.59044737e-02, 4.43866163e-01,
          4.72669095e-01, 8.74286816e-02, 2.15720192e-01, 1.90384194e-01,
          4.72669095e-01, 0., 0., 1.55161908e-02, 1.38571158e-01,
          9.68297422e-01, 1.82476595e-01, 0., 0., 0., 3.21064587e-03,
          1.89357169e-03, 5.68071520e-03, 8.31419230e-02, 9.69592988e-01,
          2.07938373e-01, 1.70177361e-03, 1.57358684e-03, 3.81505862e-03,
          1.11097442e-02, 1.32359506e-03, 3.20779204e-01, 6.48223817e-01,
          6.48223817e-01, 1.09458819e-01, 9.24366042e-02, 1.71615288e-01,
          1.17396321e-02 ]
      - [ 6.44661129e-01, 9.07653123e-02, 2.66797449e-02, 0.,
          9.23056435e-03, 0., 2.62257662e-02, 3.90723288e-01,
          6.44661129e-01, 7.04615593e-01, 0., 0., 0., 0., 0., 0., 0.,
          7.04615593e-01, 6.46886408e-01, 3.67983133e-01, 1.86433047e-02,
          5.39104082e-03, 2.87748110e-02, 9.56496075e-02, 8.28495771e-02,
          6.31532520e-02, 6.46886408e-01, 5.70785701e-01, 3.93360220e-02,
          2.86561809e-02, 6.01323284e-02, 5.70785701e-01, 5.42690828e-02,
          1.76548085e-03, 8.93233418e-02, 5.70785701e-01, 5.73220193e-01,
          0., 0., 5.48230158e-03, 5.73220193e-01, 9.22047496e-02, 0., 0.,
          5.73220193e-01, 4.89009708e-01, 8.38713646e-02, 6.29272487e-04,
          4.31669295e-01, 4.89009708e-01, 1.46157965e-01, 1.94609210e-01,
          1.58480883e-01, 4.89009708e-01, 1.21079688e-03, 0.,
          7.35198334e-03, 8.35629031e-02, 9.82686996e-01, 1.32225826e-01,
          0., 0., 1.21079688e-03, 0., 0., 0., 8.53395183e-03,
          9.76487637e-01, 1.91462517e-01, 0., 0., 0., 3.35973478e-03, 0.,
          6.99391239e-04, 6.88688993e-01, 6.88688993e-01, 1.29364789e-01,
          1.16794407e-01, 1.18887603e-01, 4.21628263e-03 ]
      - [ 4.23163086e-01, 4.23163086e-01, 3.06675166e-01, 0., 0.,
          7.99265206e-02, 4.23163086e-01, 4.23163086e-01, 4.23163086e-01,
          6.11821175e-01, 2.70748198e-01, 2.44092435e-01, 0., 0.,
          5.61300153e-03, 2.45911747e-01, 2.27708384e-01, 6.11821175e-01,
          4.07416344e-01, 4.07416344e-01, 4.07416344e-01, 1.11704157e-03,
          2.79248372e-04, 3.19711864e-04, 4.07416344e-01, 4.07416344e-01,
          4.07416344e-01, 3.72217536e-01, 3.72217536e-01, 2.76461601e-01,
          1.23362236e-01, 3.72217536e-01, 3.72217536e-01, 3.72217536e-01,
          2.70844251e-01, 3.72217536e-01, 5.29791653e-01, 2.48333421e-02,
          4.16727960e-02, 1.00940436e-01, 5.29791653e-01, 3.72921675e-01,
          2.45360620e-02, 2.13707238e-02, 5.29791653e-01, 3.60316604e-01,
          3.60316604e-01, 3.60316604e-01, 3.60316604e-01, 3.60316604e-01,
          2.22641632e-01, 3.60316604e-01, 3.60316604e-01, 1.95024580e-01,
          1.92394722e-02, 3.66479531e-02, 1.08600065e-01, 3.06863636e-01,
          6.65420234e-01, 6.65420234e-01, 0., 0., 1.07865259e-02,
          1.98471081e-03, 9.12271719e-03, 2.56393760e-01, 1.89496294e-01,
          7.11117148e-01, 6.20869279e-01, 0., 0., 1.23272580e-03, 0.,
          3.95252071e-02, 4.41544592e-01, 4.41544592e-01, 4.41544592e-01,
          4.41544592e-01, 4.41544592e-01, 1.38633072e-01, 0. ]
      - [ 4.27439749e-01, 4.27439749e-01, 2.27587014e-01, 1.87419634e-02,
          6.02372177e-02, 1.62575945e-01, 4.27439749e-01, 4.27439749e-01,
          4.27439749e-01, 6.52334392e-01, 1.87566280e-02, 1.90252792e-02,
          1.38639892e-02, 4.45375778e-02, 1.62474945e-01, 3.05450439e-01,
          1.40781209e-01, 6.52334392e-01, 4.61009502e-01, 4.61009502e-01,
          4.61009502e-01, 8.18231851e-02, 1.02304175e-01, 1.32746652e-01,
          2.96484858e-01, 1.50300115e-01, 4.61009502e-01, 3.85478586e-01,
          3.85478586e-01, 2.25952834e-01, 1.36708692e-01, 3.85478586e-01,
          3.85478586e-01, 3.72506320e-01, 2.11365357e-01, 3.85478586e-01,
          4.97622102e-01, 4.14994359e-02, 2.54364721e-02, 3.93542536e-02,
          4.97622102e-01, 4.97622102e-01, 2.23301686e-02, 1.01169245e-02,
          4.97622102e-01, 3.63641769e-01, 3.15845579e-01, 3.63641769e-01,
          3.33197385e-01, 3.63641769e-01, 3.63641769e-01, 3.32378596e-01,
          1.18050188e-01, 3.63641769e-01, 1.39907688e-01, 9.20415223e-02,
          6.58837780e-02, 9.46977362e-02, 7.41819322e-01, 6.21693671e-01,
          1.78441294e-02, 2.48565953e-02, 1.16217166e-01, 1.49439007e-01,
          5.42053953e-03, 1.03992654e-03, 1.22357775e-02, 7.41096437e-01,
          6.46276951e-01, 0., 0., 5.65027781e-02, 3.18114161e-02,
          2.69132346e-01, 5.04241407e-01, 5.04241407e-01, 5.04241407e-01,
          3.48336905e-01, 1.88287243e-01, 3.88691798e-02, 2.09763125e-02 ]
      - [ 4.04641926e-01, 4.04641926e-01, 1.04880214e-01, 0.,
          5.04708141e-02, 4.04641926e-01, 4.04641926e-01, 4.04641926e-01,
          4.04641926e-01, 4.79000419e-01, 4.79000419e-01, 5.49288001e-03,
          1.60225499e-02, 8.64656344e-02, 3.28200668e-01, 4.79000419e-01,
          3.82736772e-01, 2.11955890e-01, 4.42648083e-01, 4.42648083e-01,
          3.87118645e-02, 4.63156551e-02, 9.96219441e-02, 4.82034460e-02,
          4.42648083e-01, 4.42648083e-01, 4.42648083e-01, 3.32778692e-01,
          3.32778692e-01, 3.32778692e-01, 3.32778692e-01, 3.32778692e-01,
          3.32778692e-01, 3.32778692e-01, 3.32778692e-01, 3.32778692e-01,
          4.79131311e-01, 4.79131311e-01, 2.09787101e-01, 5.16277626e-02,
          2.68490702e-01, 4.79131311e-01, 4.11053002e-01, 3.81012484e-02,
          1.31660327e-01, 2.20831931e-01, 3.93231183e-01, 3.93231183e-01,
          2.93397427e-01, 2.96438158e-01, 3.93231183e-01, 3.93231183e-01,
          3.93231183e-01, 1.39076756e-02, 1.42101213e-01, 1.18572135e-02,
          2.17752412e-01, 6.05325818e-01, 6.05325818e-01, 3.94530505e-01,
          3.07060638e-03, 5.29411808e-02, 1.86818913e-01, 1.68664083e-01,
          1.07871793e-01, 3.69047284e-01, 1.67254895e-01, 6.09483659e-01,
          6.09483659e-01, 2.09288761e-01, 2.87314644e-03, 5.39415628e-02,
          2.96940561e-05, 1.87140524e-01, 4.34987307e-01, 4.34987307e-01,
          4.34987307e-01, 4.34987307e-01, 4.34987307e-01, 1.20679401e-01,
          0. ]
      - [ 4.27603722e-01, 4.27603722e-01, 1.31122142e-01, 1.14733388e-03,
          4.27603722e-01, 4.27603722e-01, 4.27603722e-01, 1.74509630e-01,
          1.83999598e-01, 4.73371416e-01, 4.73371416e-01, 8.86978656e-02,
          1.48482359e-04, 1.48263797e-01, 4.73371416e-01, 4.73371416e-01,
          2.42022306e-01, 1.02593720e-01, 4.16375548e-01, 4.16375548e-01,
          3.34708333e-01, 1.75311223e-01, 2.71534801e-01, 4.16375548e-01,
          4.16375548e-01, 1.86089441e-01, 2.26366967e-01, 2.42088720e-01,
          4.04736489e-01, 4.04736489e-01, 6.13208190e-02, 6.66731298e-02,
          3.67019325e-01, 4.04736489e-01, 4.04736489e-01, 3.73087943e-01,
          2.77397752e-01, 5.48269510e-01, 1.23932853e-01, 0.,
          7.94371869e-03, 5.48269510e-01, 5.48269510e-01, 2.41829199e-03,
          1.86730977e-02, 3.44950296e-02, 4.92532313e-01, 4.92532313e-01,
          5.79029135e-02, 5.13173565e-02, 4.92532313e-01, 4.92532313e-01,
          1.32485628e-01, 0., 3.83014917e-01, 1.84745267e-01,
          3.20628554e-01, 3.83014917e-01, 3.83014917e-01, 3.49906683e-01,
          5.74742928e-02, 3.83014917e-01, 3.83014917e-01, 4.50362563e-01,
          4.91268009e-01, 1.77233759e-02, 1.94262620e-02, 2.38954827e-01,
          4.91268009e-01, 4.91268009e-01, 6.21357374e-03, 1.02003545e-01,
          5.19942783e-04, 5.37119329e-01, 5.37119329e-01, 1.02040857e-01,
          2.42717154e-02, 2.95782149e-01, 5.37119329e-01, 1.75087437e-01,
          0. ]
      - [ 4.07077134e-01, 4.07077134e-01, 4.72485572e-02, 0.,
          3.54486912e-01, 4.07077134e-01, 4.07077134e-01, 1.98698282e-01,
          4.07077134e-01, 4.18802708e-01, 4.18802708e-01, 5.22278175e-02,
          4.07360378e-04, 1.33621097e-01, 4.18802708e-01, 4.18802708e-01,
          3.96287620e-01, 3.41478080e-01, 4.27272648e-01, 4.27272648e-01,
          1.67387784e-01, 1.38908178e-01, 2.33251154e-01, 4.27272648e-01,
          2.92314678e-01, 2.79850155e-01, 4.27272648e-01, 3.48927319e-01,
          3.70547503e-01, 3.70547503e-01, 1.27504513e-01, 1.85627416e-01,
          3.70547503e-01, 3.70547503e-01, 3.70547503e-01, 3.70547503e-01,
          4.97802705e-01, 4.97802705e-01, 4.97366562e-02, 1.10189729e-04,
          2.38840170e-02, 4.97802705e-01, 4.97802705e-01, 6.95120497e-03,
          2.65650358e-02, 1.66950658e-01, 4.69696254e-01, 4.69696254e-01,
          1.35019481e-01, 1.59141183e-01, 4.69696254e-01, 4.69696254e-01,
          2.01974019e-01, 2.50641424e-02, 4.19192135e-01, 1.09434746e-01,
          1.86824724e-01, 4.19192135e-01, 4.19192135e-01, 2.61403531e-01,
          4.46214601e-02, 4.19192135e-01, 4.19192135e-01, 4.44498301e-01,
          4.44498301e-01, 4.49467869e-03, 2.94642914e-02, 4.44498301e-01,
          4.44498301e-01, 4.44498301e-01, 4.75946534e-03, 8.21904764e-02,
          1.95438787e-03, 4.78796303e-01, 4.78796303e-01, 2.30126649e-01,
          1.73828349e-01, 4.47469532e-01, 4.78796303e-01, 1.55153707e-01,
          1.50152744e-04 ]
      - [ 3.89497489e-01, 3.89497489e-01, 3.31717730e-02, 5.91259159e-04,
          3.89497489e-01, 3.89497489e-01, 3.89497489e-01, 2.91132957e-01,
          3.89497489e-01, 4.17445004e-01, 4.17445004e-01, 1.09032122e-02,
          5.66164637e-03, 1.59133002e-01, 4.17445004e-01, 4.17445004e-01,
          4.17445004e-01, 3.14728767e-01, 4.38950121e-01, 4.38950121e-01,
          1.94252804e-01, 1.40435979e-01, 2.22204953e-01, 4.38950121e-01,
          2.26604909e-01, 2.58312166e-01, 4.38950121e-01, 3.42412502e-01,
          3.42412502e-01, 3.42412502e-01, 3.19849342e-01, 2.71202773e-01,
          3.42412502e-01, 3.42412502e-01, 3.42412502e-01, 3.42412502e-01,
          4.98875767e-01, 4.98875767e-01, 2.36033797e-02, 8.84078094e-04,
          5.80661409e-02, 4.98875767e-01, 4.91661906e-01, 1.15098832e-02,
          5.09219132e-02, 2.31705442e-01, 4.65345860e-01, 4.65345860e-01,
          1.19806163e-01, 1.56051934e-01, 4.65345860e-01, 4.65345860e-01,
          1.88218594e-01, 3.66798118e-02, 4.04195189e-01, 8.58320966e-02,
          1.32875130e-01, 4.55616623e-01, 4.55616623e-01, 2.77500987e-01,
          3.28589007e-02, 3.25893164e-01, 4.55616623e-01, 4.49198842e-01,
          4.33657587e-01, 4.59421519e-03, 2.69755032e-02, 5.00290632e-01,
          5.00290632e-01, 3.04475874e-01, 3.33835906e-03, 1.05442546e-01,
          4.34785197e-03, 3.76013964e-01, 4.32037652e-01, 4.32037652e-01,
          3.12692493e-01, 4.32037652e-01, 4.32037652e-01, 9.93389115e-02,
          2.84531340e-03 ]
      - [ 3.76020223e-01, 4.34981823e-01, 2.13595510e-01, 0.,
          2.79194582e-03, 2.82284498e-01, 4.34981823e-01, 4.34981823e-01,
          4.01647538e-01, 6.92694306e-01, 6.92694306e-01, 6.04244601e-03,
          2.90578101e-02, 4.18050624e-02, 8.76482800e-02, 3.37532982e-02,
          6.86548352e-02, 1.31418765e-01, 5.44857919e-01, 5.44857919e-01,
          7.01243356e-02, 6.46646544e-02, 9.00394022e-02, 2.41789445e-01,
          3.61364484e-01, 3.08012575e-01, 3.15744162e-01, 3.88561070e-01,
          1.36641115e-01, 3.88561070e-01, 3.88561070e-01, 2.41063982e-01,
          1.16005272e-01, 3.88561070e-01, 3.88561070e-01, 3.88561070e-01,
          5.42160213e-01, 5.42160213e-01, 2.52297468e-04, 3.28353350e-03,
          2.98921585e-01, 5.42160213e-01, 2.21014973e-02, 2.55194237e-03,
          1.51369721e-01, 4.28276747e-01, 4.28276747e-01, 4.28276747e-01,
          1.39140964e-01, 1.62346929e-01, 4.28276747e-01, 4.28276747e-01,
          1.81207389e-01, 7.99945183e-03, 3.56570691e-01, 1.19177597e-02,
          9.94874835e-02, 4.92514431e-01, 4.92514431e-01, 3.05698603e-01,
          3.55574465e-03, 1.91631794e-01, 4.92514431e-01, 5.64027548e-01,
          1.63698778e-01, 2.39989167e-04, 3.03302146e-02, 5.64027548e-01,
          5.64027548e-01, 6.63930038e-03, 9.17819678e-04, 1.10564068e-01,
          2.94647273e-02, 3.95347893e-01, 4.25936788e-01, 3.72609675e-01,
          3.56838703e-01, 4.25936788e-01, 4.25936788e-01, 1.67743549e-01,
          8.90079886e-04 ]
      - [ 4.13090467e-01, 4.13090467e-01, 5.83721623e-02, 5.78886643e-03,
          5.31339459e-02, 4.13090467e-01, 4.13090467e-01, 3.69310975e-01,
          4.13090467e-01, 3.93259615e-01, 3.93259615e-01, 1.36097714e-01,
          8.01994652e-02, 2.07841232e-01, 3.93259615e-01, 3.93259615e-01,
          3.93259615e-01, 3.93259615e-01, 4.38855082e-01, 4.38855082e-01,
          1.04042843e-01, 8.63126442e-02, 1.08485878e-01, 1.73301086e-01,
          4.38855082e-01, 4.38855082e-01, 4.06403750e-01, 3.53472143e-01,
          3.53472143e-01, 3.53472143e-01, 3.13626230e-01, 1.53326675e-01,
          3.53472143e-01, 3.53472143e-01, 3.53472143e-01, 3.53472143e-01,
          5.51279962e-01, 5.51279962e-01, 2.86209937e-02, 1.55011127e-02,
          1.00054637e-01, 5.51279962e-01, 2.56272912e-01, 2.05240529e-02,
          7.48246536e-02, 3.41362715e-01, 4.00959969e-01, 4.00959969e-01,
          2.15022787e-01, 1.70852304e-01, 4.00959969e-01, 4.00959969e-01,
          4.00959969e-01, 1.40074007e-02, 3.26719910e-01, 6.57014623e-02,
          1.62122488e-01, 4.58847612e-01, 4.58847612e-01, 4.38744843e-01,
          2.65343338e-02, 1.82334870e-01, 4.58847612e-01, 3.92076552e-01,
          2.61646301e-01, 5.44206761e-02, 6.41459003e-02, 6.05871797e-01,
          6.05871797e-01, 1.54545754e-01, 2.16116523e-03, 8.14930052e-02,
          1.18191931e-02, 3.08120787e-01, 3.91064256e-01, 3.91064256e-01,
          3.91064256e-01, 3.91064256e-01, 3.91064256e-01, 3.68978083e-01,
          1.46264359e-02 ]
      - [ 4.17589337e-01, 4.17589337e-01, 5.00774123e-02, 0.,
          1.10909924e-01, 4.17589337e-01, 4.17589337e-01, 3.30326021e-01,
          4.17589337e-01, 4.07220453e-01, 4.07220453e-01, 0., 0.,
          5.56999668e-02, 4.07220453e-01, 4.07220453e-01, 4.07220453e-01,
          4.04582411e-01, 4.31038380e-01, 4.31038380e-01, 1.27648354e-01,
          1.02937371e-01, 1.65476769e-01, 4.16839182e-01, 2.31490105e-01,
          3.95849437e-01, 4.31038380e-01, 3.40663284e-01, 3.40663284e-01,
          3.40663284e-01, 3.40663284e-01, 2.61121899e-01, 3.40663284e-01,
          3.40663284e-01, 3.40663284e-01, 3.40663284e-01, 5.51344693e-01,
          5.51344693e-01, 1.64026991e-04, 1.20404605e-02, 1.70001402e-01,
          5.51344693e-01, 1.64035991e-01, 2.88796499e-02, 1.60511568e-01,
          3.10865849e-01, 4.49452072e-01, 4.49452072e-01, 1.51088908e-01,
          1.31627440e-01, 4.49452072e-01, 4.49452072e-01, 2.21787885e-01,
          3.87401842e-02, 2.63204068e-01, 2.30117813e-02, 1.33248791e-01,
          5.58247566e-01, 5.58247566e-01, 3.26034963e-01, 7.24488217e-03,
          1.57650068e-01, 3.90357167e-01, 3.87609661e-01, 1.53869033e-01,
          7.98948575e-04, 9.88436788e-02, 6.30343616e-01, 6.30343616e-01,
          5.98410778e-02, 7.81344995e-03, 1.08216092e-01, 4.20996174e-03,
          4.05071080e-01, 4.05071080e-01, 4.05071080e-01, 4.05071080e-01,
          4.05071080e-01, 4.05071080e-01, 1.06879808e-01, 4.11643693e-03 ]
      - [ 4.07296032e-01, 4.07296032e-01, 2.36173254e-02, 2.99739093e-03,
          4.88461973e-03, 4.07296032e-01, 4.07296032e-01, 4.07296032e-01,
          4.07296032e-01, 4.28207725e-01, 4.28207725e-01, 9.28803459e-02,
          9.12899598e-02, 1.13773078e-01, 4.28207725e-01, 4.28207725e-01,
          4.28207725e-01, 2.21378118e-01, 5.79632282e-01, 5.79632282e-01,
          7.54154697e-02, 7.75817037e-02, 1.32401958e-01, 3.17805529e-01,
          3.08295459e-01, 2.44927377e-01, 1.92333922e-01, 3.69748265e-01,
          2.71531612e-01, 2.90762603e-01, 3.49267513e-01, 1.80214137e-01,
          3.69748265e-01, 3.69748265e-01, 3.69748265e-01, 3.69748265e-01,
          5.55497587e-01, 5.55497587e-01, 1.59181945e-03, 2.11391738e-03,
          2.39108771e-01, 5.55497587e-01, 3.39878686e-02, 1.02062011e-02,
          1.01394482e-01, 4.50632393e-01, 4.50632393e-01, 4.50632393e-01,
          1.20119661e-01, 1.73182368e-01, 4.50632393e-01, 3.58719617e-01,
          1.00570425e-01, 2.34706467e-03, 3.74118000e-01, 3.46498080e-02,
          1.12960316e-01, 4.72796410e-01, 4.72796410e-01, 3.05391848e-01,
          6.37439359e-03, 2.78277814e-01, 4.72796410e-01, 5.53588331e-01,
          2.52498358e-01, 1.21748149e-02, 6.83960924e-03, 5.53588331e-01,
          5.53588331e-01, 6.67983433e-03, 4.50725248e-03, 1.05244860e-01,
          6.31511882e-02, 4.26594734e-01, 4.26594734e-01, 4.11433697e-01,
          4.26594734e-01, 4.26594734e-01, 3.05390388e-01, 3.56617048e-02,
          2.36175396e-03 ]
      - [ 4.06153113e-01, 4.06153113e-01, 6.89857602e-02, 2.31435196e-03,
          3.76299508e-02, 4.06153113e-01, 4.06153113e-01, 4.06153113e-01,
          4.06153113e-01, 5.33533752e-01, 5.33533752e-01, 1.40056759e-03,
          5.56146121e-03, 1.81216914e-02, 5.15040100e-01, 3.48669708e-01,
          1.64198115e-01, 1.05811551e-01, 4.59993511e-01, 4.59993511e-01,
          2.93005079e-01, 9.99913588e-02, 1.00659817e-01, 4.32169259e-01,
          4.25309569e-01, 2.14905858e-01, 2.28892073e-01, 3.57054442e-01,
          1.71796918e-01, 2.72953093e-01, 3.57054442e-01, 3.57054442e-01,
          3.57054442e-01, 3.57054442e-01, 3.57054442e-01, 3.57054442e-01,
          5.38494766e-01, 5.38494766e-01, 1.28560187e-02, 4.92894929e-03,
          3.33998591e-01, 5.38494766e-01, 2.81160735e-02, 8.76783021e-03,
          1.09911546e-01, 4.01753992e-01, 4.40611452e-01, 4.40611452e-01,
          1.15856335e-01, 1.43666476e-01, 4.40611452e-01, 4.40611452e-01,
          1.53450921e-01, 5.35807759e-03, 2.27647528e-01, 1.55395791e-02,
          8.07254016e-02, 5.21338105e-01, 5.21338105e-01, 5.21338105e-01,
          7.43692945e-05, 8.92335996e-02, 3.35959882e-01, 4.23627466e-01,
          2.01138914e-01, 2.00446472e-01, 8.91482607e-02, 6.00245714e-01,
          6.00245714e-01, 3.54912551e-03, 4.50085197e-03, 7.30786547e-02,
          1.13416463e-01, 4.34100062e-01, 4.34100062e-01, 4.34100062e-01,
          4.34100062e-01, 4.34100062e-01, 2.00590819e-01, 1.86722465e-02,
          8.51404038e-04 ]
      - [ 3.49899501e-01, 1.25307431e-02, 2.24492280e-03, 2.31693336e-03,
          2.99237877e-01, 4.10704285e-01, 4.52644199e-01, 4.52644199e-01,
          4.52644199e-01, 6.50446355e-01, 6.50446355e-01, 1.72249600e-03,
          0., 1.06287390e-01, 3.68728518e-01, 7.37473043e-03,
          3.73654970e-04, 5.47719747e-03, 4.92858887e-01, 4.92858887e-01,
          6.39197882e-04, 0., 1.24458700e-01, 4.92858887e-01,
          4.42030162e-01, 1.71504781e-01, 1.61409020e-01, 4.20348257e-01,
          4.20348257e-01, 2.63597637e-01, 4.03013490e-02, 4.21111397e-02,
          1.98635802e-01, 4.20348257e-01, 4.20348257e-01, 4.20348257e-01,
          5.41596770e-01, 5.41596770e-01, 9.46838933e-04, 0.,
          3.41402628e-02, 5.41596770e-01, 3.33355218e-01, 5.14873862e-03,
          4.78699654e-02, 5.67540586e-01, 5.67540586e-01, 4.19604650e-04,
          0., 1.35642782e-01, 5.67540586e-01, 9.14918259e-02,
          1.01185702e-02, 3.39654163e-02, 3.61595839e-01, 3.61595839e-01,
          2.69003361e-01, 3.61595839e-01, 3.61595839e-01, 3.61595839e-01,
          2.09141463e-01, 3.61595839e-01, 3.09475213e-01, 5.64826071e-01,
          5.64826071e-01, 5.13315834e-02, 5.16571011e-03, 1.09195903e-01,
          5.64826071e-01, 1.50015235e-01, 2.17607012e-03, 1.34044411e-02,
          5.33855021e-01, 5.33855021e-01, 2.21039169e-03, 2.55048421e-04,
          1.22865200e-01, 5.33855021e-01, 3.52093548e-01, 2.42192987e-02,
          2.81318091e-03 ]
      - [ 4.18781042e-01, 3.31075966e-01, 9.65194330e-02, 0.,
          1.20616704e-03, 4.18781042e-01, 4.18781042e-01, 4.18781042e-01,
          4.18781042e-01, 6.97384655e-01, 6.97384655e-01, 0., 0., 0.,
          4.75204140e-02, 1.30014524e-01, 3.30010876e-02, 9.83215123e-03,
          4.64123070e-01, 4.64123070e-01, 1.27937838e-01, 9.77007151e-02,
          1.08317427e-01, 3.23876381e-01, 4.34871048e-01, 1.32206187e-01,
          4.64123070e-01, 4.05533612e-01, 2.19990388e-01, 2.67571270e-01,
          4.05533612e-01, 1.60188302e-01, 1.67364433e-01, 4.05533612e-01,
          4.05533612e-01, 4.05533612e-01, 5.60875535e-01, 5.60875535e-01,
          3.82546410e-02, 3.24660912e-02, 8.22139531e-02, 5.60875535e-01,
          1.31260693e-01, 4.30628611e-03, 1.55340090e-01, 3.98069531e-01,
          4.46233004e-01, 4.46233004e-01, 1.21380039e-01, 9.87196118e-02,
          4.46233004e-01, 4.46233004e-01, 1.19541280e-01, 4.26483639e-02,
          2.26084262e-01, 8.59522671e-02, 1.13981888e-01, 4.95622128e-01,
          4.95622128e-01, 3.41106087e-01, 3.53921279e-02, 2.62728930e-01,
          4.95622128e-01, 2.94324696e-01, 2.07888231e-01, 9.49258730e-02,
          8.73122215e-02, 6.45045519e-01, 6.45045519e-01, 7.98656195e-02,
          1.89176248e-03, 9.23666060e-02, 6.81491010e-03, 4.15360510e-01,
          4.15360510e-01, 4.15360510e-01, 3.94689530e-01, 4.15360510e-01,
          3.80154699e-01, 7.34230354e-02, 4.29291092e-03 ]
      - [ 4.05094236e-01, 4.05094236e-01, 1.06512688e-01, 0., 0.,
          4.05094236e-01, 4.05094236e-01, 4.05094236e-01, 4.05094236e-01,
          3.74729007e-01, 3.74729007e-01, 3.74729007e-01, 3.74729007e-01,
          5.50147379e-03, 1.15208641e-01, 3.74729007e-01, 3.74729007e-01,
          3.74729007e-01, 4.07951027e-01, 3.84612679e-01, 4.07951027e-01,
          4.07951027e-01, 1.38564454e-02, 0., 1.25241950e-01,
          4.07951027e-01, 4.07951027e-01, 3.40295374e-01, 3.40295374e-01,
          3.40295374e-01, 3.40295374e-01, 2.64938593e-01, 3.40295374e-01,
          3.40295374e-01, 3.40295374e-01, 3.40295374e-01, 3.88618916e-01,
          3.88618916e-01, 2.10663572e-01, 3.88618916e-01, 3.14910173e-01,
          2.87237376e-01, 1.22235455e-01, 3.88618916e-01, 3.88618916e-01,
          3.48554254e-01, 3.48554254e-01, 3.48554254e-01, 3.48554254e-01,
          1.56834140e-01, 3.48554254e-01, 3.48554254e-01, 3.48554254e-01,
          3.48554254e-01, 1.38904124e-01, 2.79735234e-02, 1.99897274e-01,
          5.52130282e-01, 5.52130282e-01, 5.52130282e-01, 2.37647500e-02,
          4.58478108e-02, 1.31301865e-01, 1.86431408e-01, 2.35906541e-02,
          1.85523123e-01, 5.37378192e-01, 5.37378192e-01, 5.37378192e-01,
          1.91361643e-02, 1.03360049e-01, 2.18004808e-01, 2.51352936e-01,
          9.27528068e-02, 1.99449379e-02, 2.08666950e-01, 6.24846816e-01,
          6.24846816e-01, 2.80651271e-01, 1.66205112e-02, 1.34654582e-01 ]
      - [ 4.53573942e-01, 4.53573942e-01, 1.39209807e-01, 9.94812435e-05,
          2.26340801e-01, 4.53573942e-01, 4.53573942e-01, 2.25100040e-01,
          2.26434290e-01, 3.50093216e-01, 3.50093216e-01, 3.50093216e-01,
          3.50093216e-01, 1.26412362e-01, 3.50093216e-01, 3.50093216e-01,
          3.50093216e-01, 3.50093216e-01, 1.90771848e-01, 1.83859751e-01,
          4.58898395e-01, 4.58898395e-01, 2.57721871e-01, 6.83714752e-05,
          1.28243700e-01, 4.58898395e-01, 4.58898395e-01, 3.07168037e-01,
          4.07548577e-01, 4.07548577e-01, 6.63772523e-02, 4.48605567e-02,
          3.67780030e-01, 4.07548577e-01, 4.07548577e-01, 3.09051245e-01,
          3.54438394e-01, 4.38028872e-01, 4.38028872e-01, 3.60761993e-02,
          4.81595993e-02, 3.97650190e-02, 4.38028872e-01, 4.38028872e-01,
          3.11959445e-01, 2.84700990e-01, 4.43016589e-01, 4.43016589e-01,
          3.23611170e-01, 3.20554525e-02, 6.17330484e-02, 4.43016589e-01,
          4.43016589e-01, 1.41076580e-01, 3.66734684e-01, 2.22584233e-01,
          3.66734684e-01, 3.66734684e-01, 3.66734684e-01, 3.66734684e-01,
          7.30213001e-02, 3.66734684e-01, 3.66734684e-01, 3.01656187e-01,
          2.70173430e-01, 2.87656516e-01, 3.82555962e-01, 3.82555962e-01,
          3.82555962e-01, 1.33027613e-01, 3.82555962e-01, 3.82555962e-01,
          3.88821542e-01, 3.88821542e-01, 9.56038237e-02, 1.98682934e-01,
          3.88821542e-01, 3.88821542e-01, 3.88821542e-01, 2.01016083e-01,
          3.88821542e-01 ]
      - [ 3.93005788e-01, 3.93005788e-01, 4.83801514e-02, 0.,
          3.81070733e-01, 3.93005788e-01, 3.93005788e-01, 2.76134998e-01,
          3.93005788e-01, 3.52248073e-01, 3.52248073e-01, 3.52248073e-01,
          3.52248073e-01, 1.91827729e-01, 3.01880568e-01, 3.52248073e-01,
          3.52248073e-01, 3.52248073e-01, 4.06957239e-01, 2.71205366e-01,
          4.06957239e-01, 4.06957239e-01, 2.99420387e-01, 0.,
          6.82544187e-02, 4.06957239e-01, 4.06957239e-01, 3.40557903e-01,
          3.40557903e-01, 3.40557903e-01, 2.62221366e-01, 3.40557903e-01,
          3.40557903e-01, 3.40557903e-01, 3.40557903e-01, 3.40557903e-01,
          3.74588966e-01, 3.74588966e-01, 3.74588966e-01, 2.27171898e-01,
          2.71248847e-01, 1.70801997e-01, 3.74588966e-01, 3.74588966e-01,
          3.74588966e-01, 3.58060300e-01, 3.58060300e-01, 3.58060300e-01,
          3.58060300e-01, 2.11360544e-01, 2.33021691e-01, 3.58060300e-01,
          3.58060300e-01, 3.58060300e-01, 3.99382770e-01, 9.98698771e-02,
          1.43011987e-01, 4.37039435e-01, 4.37039435e-01, 4.37039435e-01,
          2.97177788e-02, 2.02001005e-01, 4.37039435e-01, 2.96044052e-01,
          1.69641182e-01, 7.54447877e-02, 4.46153373e-01, 4.46153373e-01,
          4.46153373e-01, 7.14237168e-02, 2.97921658e-01, 4.27099735e-01,
          4.64004427e-01, 2.84871012e-01, 5.22777513e-02, 2.19462335e-01,
          4.64004427e-01, 4.64004427e-01, 2.15350002e-01, 7.08963647e-02,
          4.07449305e-01 ]
      - [ 3.96827430e-01, 3.96827430e-01, 1.20293386e-01, 1.80669092e-02,
          3.96827430e-01, 2.91454166e-01, 3.96827430e-01, 3.46643388e-01,
          3.82418036e-01, 3.99824649e-01, 3.99824649e-01, 3.33028108e-01,
          2.15125203e-01, 3.99824649e-01, 9.60698277e-02, 1.74043089e-01,
          3.99824649e-01, 3.99824649e-01, 2.51663297e-01, 3.08127165e-01,
          4.15307045e-01, 3.21983248e-01, 4.15307045e-01, 7.09760934e-03,
          2.09597647e-01, 4.15307045e-01, 4.15307045e-01, 3.51061642e-01,
          3.51061642e-01, 3.51061642e-01, 3.51061642e-01, 2.42654890e-01,
          3.51061642e-01, 3.51061642e-01, 3.51061642e-01, 2.73681015e-01,
          3.44263852e-01, 3.44263852e-01, 3.01234901e-01, 3.44263852e-01,
          3.44263852e-01, 3.44263852e-01, 2.76034117e-01, 3.44263852e-01,
          3.44263852e-01, 2.49244094e-01, 3.63096297e-01, 3.63096297e-01,
          3.63096297e-01, 1.67750120e-01, 3.63096297e-01, 3.63096297e-01,
          3.63096297e-01, 3.39228570e-01, 3.72228533e-01, 1.08243965e-01,
          3.72228533e-01, 3.72228533e-01, 3.72228533e-01, 1.21185929e-01,
          3.72228533e-01, 3.72228533e-01, 3.72228533e-01, 4.22736138e-01,
          1.88249454e-01, 7.31722265e-02, 4.22736138e-01, 4.22736138e-01,
          4.22736138e-01, 8.37795287e-02, 2.33317003e-01, 4.22736138e-01,
          3.75326335e-01, 3.75326335e-01, 3.75326335e-01, 6.11352585e-02,
          3.75326335e-01, 3.75326335e-01, 3.75326335e-01, 8.01487491e-02,
          3.75326335e-01 ]
      - [ 3.86489481e-01, 3.86489481e-01, 1.94415405e-01, 1.32009611e-02,
          3.86489481e-01, 3.86489481e-01, 3.86489481e-01, 2.48842463e-01,
          3.86489481e-01, 3.88112009e-01, 2.83634514e-01, 3.64439309e-01,
          3.82910132e-01, 3.88112009e-01, 1.80799514e-01, 2.06189215e-01,
          3.30367595e-01, 3.88112009e-01, 3.78789932e-01, 3.78789932e-01,
          3.78789932e-01, 3.30066472e-01, 3.78789932e-01, 6.93396316e-04,
          1.62420616e-01, 3.78789932e-01, 3.78789932e-01, 3.32778692e-01,
          3.32778692e-01, 3.32778692e-01, 3.32778692e-01, 3.32778692e-01,
          3.32778692e-01, 3.32778692e-01, 3.32778692e-01, 3.32778692e-01,
          3.55389565e-01, 3.55389565e-01, 2.23685980e-01, 3.55389565e-01,
          3.55389565e-01, 3.55389565e-01, 2.49603286e-01, 3.55389565e-01,
          3.55389565e-01, 2.08282188e-01, 3.65094870e-01, 3.65094870e-01,
          3.65094870e-01, 1.65557280e-01, 3.65094870e-01, 3.65094870e-01,
          3.65094870e-01, 3.54677498e-01, 4.39846992e-01, 6.22728653e-02,
          2.13946894e-01, 4.39846992e-01, 4.39846992e-01, 9.74723101e-02,
          3.08865488e-01, 2.59219825e-01, 4.39846992e-01, 4.51021969e-01,
          1.61183700e-01, 9.67992935e-03, 4.51021969e-01, 4.51021969e-01,
          3.27664375e-01, 4.15503457e-02, 2.15980083e-01, 4.51021969e-01,
          3.90489846e-01, 3.90489846e-01, 3.90489846e-01, 7.13173002e-02,
          3.90489846e-01, 3.90489846e-01, 2.72191584e-01, 4.50631082e-02,
          3.90489846e-01 ]
      - [ 4.13736314e-01, 4.13736314e-01, 1.12767830e-01, 1.58628405e-04,
          2.82728113e-02, 4.13736314e-01, 4.13736314e-01, 3.55615675e-01,
          4.13736314e-01, 3.68766278e-01, 3.68766278e-01, 3.68766278e-01,
          3.68766278e-01, 4.01567668e-02, 2.06840798e-01, 3.68766278e-01,
          3.68766278e-01, 3.68766278e-01, 4.19203520e-01, 2.98418880e-01,
          4.19203520e-01, 4.19203520e-01, 4.73626778e-02, 9.47504886e-04,
          1.60799190e-01, 4.19203520e-01, 4.19203520e-01, 3.42006415e-01,
          3.42006415e-01, 3.42006415e-01, 3.42006415e-01, 2.46648803e-01,
          3.42006415e-01, 3.42006415e-01, 3.42006415e-01, 3.42006415e-01,
          4.01999146e-01, 4.01999146e-01, 1.65771052e-01, 4.01999146e-01,
          3.37489277e-01, 1.83921576e-01, 1.12965249e-01, 4.01999146e-01,
          4.01999146e-01, 3.55501145e-01, 3.55501145e-01, 3.55501145e-01,
          3.55501145e-01, 1.48462579e-01, 3.55501145e-01, 3.55501145e-01,
          3.55501145e-01, 2.99565375e-01, 1.29295990e-01, 3.18213366e-02,
          1.75338596e-01, 5.49816728e-01, 5.49816728e-01, 5.49816728e-01,
          2.09686975e-03, 5.73258661e-02, 1.89340532e-01, 1.43517956e-01,
          4.78737503e-02, 2.02308944e-03, 5.53462088e-01, 5.53462088e-01,
          5.53462088e-01, 2.89119524e-03, 1.18645109e-01, 1.96300074e-01,
          2.41390720e-01, 1.36388317e-01, 9.65617225e-03, 2.60070652e-01,
          5.82952440e-01, 5.82952440e-01, 3.89700353e-01, 3.23867388e-02,
          1.30365506e-01 ]
      - [ 4.12799984e-01, 4.12799984e-01, 1.15683608e-01, 1.33537789e-04,
          3.18701528e-02, 4.12799984e-01, 4.12799984e-01, 3.59803885e-01,
          4.12799984e-01, 3.69147032e-01, 3.69147032e-01, 3.69147032e-01,
          3.69147032e-01, 3.22455429e-02, 2.03433976e-01, 3.69147032e-01,
          3.69147032e-01, 3.69147032e-01, 4.18724269e-01, 3.04627091e-01,
          4.18724269e-01, 4.18724269e-01, 5.09451367e-02, 1.16630434e-03,
          1.54184252e-01, 4.18724269e-01, 4.18724269e-01, 3.41744870e-01,
          3.41744870e-01, 3.41744870e-01, 3.41744870e-01, 2.49537736e-01,
          3.41744870e-01, 3.41744870e-01, 3.41744870e-01, 3.41744870e-01,
          4.01888043e-01, 4.01888043e-01, 1.64816350e-01, 4.01888043e-01,
          3.41287941e-01, 1.80116743e-01, 1.11046053e-01, 4.01888043e-01,
          4.01888043e-01, 3.55777591e-01, 3.55777591e-01, 3.55777591e-01,
          3.55777591e-01, 1.52674541e-01, 3.55777591e-01, 3.55777591e-01,
          3.55777591e-01, 2.95113355e-01, 1.28432438e-01, 3.19402143e-02,
          1.76356524e-01, 5.49806237e-01, 5.49806237e-01, 5.49806237e-01,
          2.73326761e-03, 5.79956099e-02, 1.88841686e-01, 1.42835379e-01,
          4.80849668e-02, 2.11712974e-03, 5.53233802e-01, 5.53233802e-01,
          5.53233802e-01, 3.05424584e-03, 1.20685101e-01, 1.97432697e-01,
          2.43700877e-01, 1.36524498e-01, 1.00580221e-02, 2.72874534e-01,
          5.80066979e-01, 5.80066979e-01, 3.88546258e-01, 3.22652757e-02,
          1.29044160e-01 ]
      - [ 4.20594692e-01, 4.20594692e-01, 3.27786893e-01, 1.08455855e-03,
          3.58869648e-03, 6.19739592e-02, 4.20594692e-01, 4.20594692e-01,
          4.20594692e-01, 4.08160418e-01, 4.08160418e-01, 4.03502971e-01,
          0., 9.96539090e-03, 5.84340701e-03, 4.08160418e-01,
          4.08160418e-01, 4.08160418e-01, 4.21192169e-01, 4.26669806e-01,
          4.26669806e-01, 1.22716449e-01, 8.56731203e-04, 4.75843641e-04,
          2.74018854e-01, 4.26669806e-01, 4.26669806e-01, 3.53897452e-01,
          3.53897452e-01, 3.53897452e-01, 2.64543742e-01, 2.96533704e-01,
          2.95106858e-01, 3.53897452e-01, 3.53897452e-01, 3.53897452e-01,
          3.17456245e-01, 3.66313785e-01, 3.66313785e-01, 3.66313785e-01,
          2.34396905e-01, 1.88428238e-01, 3.66313785e-01, 3.66313785e-01,
          3.66313785e-01, 3.90534431e-01, 3.90534431e-01, 3.90534431e-01,
          6.80357516e-02, 8.33343565e-02, 3.90534431e-01, 3.90534431e-01,
          3.09421957e-01, 3.55242848e-01, 3.76613557e-01, 1.24196790e-01,
          9.62155387e-02, 4.75293070e-01, 4.75293070e-01, 4.75293070e-01,
          4.40719314e-02, 1.15027145e-01, 3.68576437e-01, 2.08462894e-01,
          6.66294843e-02, 2.78000087e-01, 4.57089484e-01, 4.57089484e-01,
          4.57089484e-01, 5.87658584e-02, 3.02913517e-01, 3.85034591e-01,
          4.76631224e-01, 2.51427591e-01, 1.99988857e-02, 2.91756749e-01,
          4.76631224e-01, 4.76631224e-01, 2.29538605e-01, 4.97081764e-02,
          3.31377238e-01 ]
      - [ 4.04826462e-01, 4.04826462e-01, 1.12467229e-01, 4.45368059e-04,
          7.75288572e-05, 4.04826462e-01, 4.04826462e-01, 4.04826462e-01,
          4.04826462e-01, 3.73899877e-01, 3.73899877e-01, 3.73899877e-01,
          3.73899877e-01, 2.93663959e-03, 1.32845938e-01, 3.73899877e-01,
          3.73899877e-01, 3.73899877e-01, 4.02822971e-01, 4.02822971e-01,
          4.02822971e-01, 4.02822971e-01, 2.39524365e-04, 1.84973964e-04,
          1.49591610e-01, 4.02822971e-01, 4.02822971e-01, 3.43073934e-01,
          3.43073934e-01, 3.43073934e-01, 3.43073934e-01, 2.34466434e-01,
          3.43073934e-01, 3.43073934e-01, 3.43073934e-01, 3.43073934e-01,
          3.69230837e-01, 3.69230837e-01, 1.41101718e-01, 3.69230837e-01,
          3.59937668e-01, 1.69876039e-01, 3.69230837e-01, 3.69230837e-01,
          3.69230837e-01, 3.68056566e-01, 3.68056566e-01, 3.68056566e-01,
          3.68056566e-01, 5.46613820e-02, 3.68056566e-01, 3.68056566e-01,
          3.68056566e-01, 2.12309778e-01, 1.45391792e-01, 4.85268347e-02,
          2.21701294e-01, 5.42126834e-01, 5.42126834e-01, 5.42126834e-01,
          8.25208519e-03, 8.85659829e-02, 1.79789752e-01, 1.79229513e-01,
          5.57156987e-02, 3.51128425e-03, 5.42450845e-01, 5.42450845e-01,
          5.42450845e-01, 2.21735910e-02, 1.36865750e-01, 2.39500478e-01,
          2.74037987e-01, 1.42179981e-01, 2.76314486e-02, 4.26022828e-01,
          5.36343396e-01, 5.36343396e-01, 3.57794642e-01, 2.51486897e-02,
          1.14433840e-01 ]
      - [ 4.17217463e-01, 4.17217463e-01, 2.76358694e-01, 4.41909360e-04,
          8.66110422e-05, 2.21598104e-01, 4.17217463e-01, 4.17217463e-01,
          4.17217463e-01, 4.10711139e-01, 4.10711139e-01, 3.90163839e-01,
          1.37202516e-02, 3.71769420e-03, 7.00880866e-03, 4.10711139e-01,
          4.10711139e-01, 4.10711139e-01, 4.29719985e-01, 4.29719985e-01,
          4.29719985e-01, 6.37826696e-02, 3.53622437e-03, 1.22678140e-02,
          2.61112779e-01, 4.29719985e-01, 4.29719985e-01, 3.87883186e-01,
          3.87883186e-01, 3.87883186e-01, 1.43145472e-01, 7.12119788e-02,
          2.60466814e-01, 3.87883186e-01, 3.87883186e-01, 3.87883186e-01,
          3.62304896e-01, 3.69448662e-01, 3.69448662e-01, 2.95893162e-01,
          1.86349049e-01, 2.45568439e-01, 3.69448662e-01, 3.69448662e-01,
          3.69448662e-01, 3.97177398e-01, 3.97177398e-01, 3.97177398e-01,
          8.62279460e-02, 9.02268812e-02, 2.88495958e-01, 3.97177398e-01,
          3.97177398e-01, 3.29357982e-01, 2.29643643e-01, 9.24998745e-02,
          2.31215253e-01, 5.06925941e-01, 5.06925941e-01, 5.06925941e-01,
          1.50265783e-01, 1.49600118e-01, 2.53579766e-01, 1.43047944e-01,
          6.16736859e-02, 4.59233135e-01, 4.59233135e-01, 4.59233135e-01,
          4.59233135e-01, 2.39414454e-01, 1.52496889e-01, 2.16775581e-01,
          3.35943401e-01, 1.77822784e-01, 9.07801315e-02, 3.71320695e-01,
          5.00556171e-01, 5.00556171e-01, 4.05260265e-01, 4.59873676e-02,
          1.92192554e-01 ]
      - [ 3.98250967e-01, 4.26068783e-01, 3.09243143e-01, 2.46883574e-04,
          7.69933453e-04, 1.23974092e-01, 4.26068783e-01, 4.26068783e-01,
          4.26068783e-01, 4.07339007e-01, 4.07339007e-01, 4.07339007e-01,
          1.68135427e-02, 5.51130436e-03, 8.19960143e-03, 4.07339007e-01,
          4.07339007e-01, 4.07339007e-01, 4.31774944e-01, 4.31774944e-01,
          4.31774944e-01, 1.58062309e-01, 1.24414163e-02, 2.42819972e-02,
          1.94450095e-01, 4.31774944e-01, 4.31774944e-01, 3.97899717e-01,
          3.97899717e-01, 3.97899717e-01, 1.24916889e-01, 5.51217087e-02,
          1.65642455e-01, 3.97899717e-01, 3.97899717e-01, 3.97899717e-01,
          3.33246768e-01, 3.66616189e-01, 3.66616189e-01, 2.37399295e-01,
          1.85075641e-01, 3.50193143e-01, 3.66616189e-01, 3.66616189e-01,
          3.66616189e-01, 3.88787806e-01, 3.88787806e-01, 3.88787806e-01,
          1.44661024e-01, 1.44226074e-01, 2.17835471e-01, 3.88787806e-01,
          3.88787806e-01, 3.88787806e-01, 1.90362588e-01, 7.34918937e-02,
          2.87943482e-01, 5.04674613e-01, 5.04674613e-01, 5.04674613e-01,
          1.40446782e-01, 1.60837397e-01, 2.46426523e-01, 1.23402998e-01,
          7.81029686e-02, 4.42455351e-01, 4.42455351e-01, 4.42455351e-01,
          4.42455351e-01, 3.80692154e-01, 1.18389770e-01, 1.79561913e-01,
          3.97679329e-01, 1.49666250e-01, 1.90279603e-01, 4.72668141e-01,
          4.72668141e-01, 4.72668141e-01, 1.65003493e-01, 6.23527765e-02,
          2.77784914e-01 ]
      - [ 4.14192408e-01, 4.14192408e-01, 2.52246428e-02, 8.32184218e-03,
          1.64344758e-02, 4.14192408e-01, 4.14192408e-01, 3.70283842e-01,
          4.14192408e-01, 4.17705446e-01, 3.79108578e-01, 2.66174853e-01,
          9.33992565e-02, 1.97811186e-01, 1.88389897e-01, 4.17705446e-01,
          4.17705446e-01, 4.17705446e-01, 4.05083656e-01, 4.05083656e-01,
          4.05083656e-01, 4.05083656e-01, 1.34171024e-02, 4.12857719e-03,
          1.05828196e-01, 4.05083656e-01, 4.05083656e-01, 3.50495487e-01,
          3.50495487e-01, 1.17139079e-01, 3.50495487e-01, 3.50495487e-01,
          3.50495487e-01, 3.50495487e-01, 3.50495487e-01, 3.50495487e-01,
          3.99287313e-01, 3.99287313e-01, 2.79127080e-02, 3.99287313e-01,
          3.99287313e-01, 1.58008739e-01, 1.16974719e-01, 3.99287313e-01,
          3.99287313e-01, 3.54866147e-01, 3.54866147e-01, 3.54866147e-01,
          3.07436556e-01, 1.78963780e-01, 3.54866147e-01, 3.38126272e-01,
          3.54866147e-01, 3.54866147e-01, 3.66281748e-01, 2.71114800e-02,
          5.98633513e-02, 4.89459008e-01, 4.89459008e-01, 4.89459008e-01,
          6.35036314e-03, 7.82117769e-02, 3.62991512e-01, 2.57366866e-01,
          5.31541929e-02, 6.97394311e-02, 5.35502076e-01, 5.35502076e-01,
          3.58759761e-01, 1.68006569e-02, 3.03017914e-01, 3.55513632e-01,
          4.92502660e-01, 2.52936155e-01, 2.65955683e-02, 2.46242285e-01,
          4.92502660e-01, 4.92502660e-01, 1.42943949e-01, 7.40798116e-02,
          3.40829045e-01 ]
      - [ 4.07175392e-01, 4.07175392e-01, 3.34204696e-02, 1.71076728e-03,
          7.84470700e-03, 4.07175392e-01, 4.07175392e-01, 4.07175392e-01,
          4.07175392e-01, 4.48026747e-01, 4.48026747e-01, 6.39084429e-02,
          2.33614836e-02, 8.88437033e-03, 1.12220608e-01, 4.18700874e-01,
          4.48026747e-01, 4.48026747e-01, 4.15505886e-01, 4.15505886e-01,
          4.15505886e-01, 3.35652381e-01, 2.80617183e-04, 1.55104548e-02,
          1.40429363e-01, 4.15505886e-01, 4.15505886e-01, 3.45471382e-01,
          3.45471382e-01, 2.27313414e-01, 3.45471382e-01, 3.45471382e-01,
          3.45471382e-01, 3.30792516e-01, 3.45471382e-01, 3.45471382e-01,
          4.13882881e-01, 4.13882881e-01, 1.01445176e-01, 4.13882881e-01,
          2.59784847e-01, 2.28345141e-01, 9.72082391e-02, 4.13882881e-01,
          4.13882881e-01, 3.68000418e-01, 3.68000418e-01, 3.68000418e-01,
          1.95967332e-01, 1.50166184e-01, 3.68000418e-01, 3.51134926e-01,
          3.68000418e-01, 3.67359519e-01, 2.30583578e-01, 4.83080186e-02,
          8.80386233e-02, 5.07810414e-01, 5.07810414e-01, 5.07810414e-01,
          1.53709231e-02, 9.81839374e-02, 3.84947568e-01, 1.27731547e-01,
          4.78730425e-02, 1.01553015e-01, 5.48777521e-01, 5.48777521e-01,
          4.32956934e-01, 1.00905066e-02, 2.59013414e-01, 3.29612732e-01,
          4.22391564e-01, 2.79007524e-01, 5.72205335e-03, 2.76544452e-01,
          5.26569784e-01, 5.26569784e-01, 1.11636490e-01, 8.08332935e-02,
          2.97361404e-01 ]
      - [ 4.04046834e-01, 4.04046834e-01, 1.20683916e-01, 1.98483281e-02,
          3.84980999e-02, 4.04046834e-01, 4.04046834e-01, 4.04046834e-01,
          4.04046834e-01, 4.29732949e-01, 4.29732949e-01, 2.42135823e-01,
          4.44968939e-02, 7.75591135e-02, 7.56980330e-02, 4.29732949e-01,
          4.29732949e-01, 4.29732949e-01, 4.18246508e-01, 4.18246508e-01,
          4.18246508e-01, 3.02155048e-01, 9.22053773e-03, 8.28214642e-03,
          1.72394484e-01, 4.18246508e-01, 4.18246508e-01, 3.63090128e-01,
          3.63090128e-01, 3.08424205e-01, 2.43289292e-01, 2.25944176e-01,
          3.63090128e-01, 3.63090128e-01, 3.63090128e-01, 3.63090128e-01,
          3.92621726e-01, 3.92621726e-01, 1.80736274e-01, 3.92621726e-01,
          1.64779916e-01, 1.06530435e-01, 3.92621726e-01, 3.92621726e-01,
          3.92621726e-01, 3.82376671e-01, 3.82376671e-01, 3.82376671e-01,
          2.36938685e-01, 8.66236687e-02, 3.82376671e-01, 3.82376671e-01,
          3.54665101e-01, 2.75117010e-01, 4.52639103e-01, 1.08954757e-01,
          1.58984661e-01, 4.52639103e-01, 4.52639103e-01, 4.52639103e-01,
          2.91375834e-02, 1.44593462e-01, 3.42120975e-01, 2.11290747e-01,
          7.84468055e-02, 1.18499570e-01, 4.90456343e-01, 4.90456343e-01,
          3.11206460e-01, 7.43682459e-02, 3.25943679e-01, 4.90456343e-01,
          4.76581901e-01, 3.92790109e-01, 1.08142039e-02, 8.23265389e-02,
          4.76581901e-01, 4.76581901e-01, 1.82717726e-01, 4.82258461e-02,
          3.41992289e-01 ]
      - [ 4.07214075e-01, 4.07214075e-01, 3.02563272e-02, 3.09071853e-03,
          8.19126610e-03, 4.07214075e-01, 4.07214075e-01, 4.07214075e-01,
          4.07214075e-01, 4.34930533e-01, 4.34930533e-01, 1.94883570e-01,
          4.63089719e-02, 7.97934532e-02, 5.78067414e-02, 4.34930533e-01,
          4.34930533e-01, 4.34930533e-01, 4.05209690e-01, 4.05209690e-01,
          4.05209690e-01, 4.05209690e-01, 5.19255223e-03, 9.09407914e-04,
          1.03705943e-01, 4.05209690e-01, 4.05209690e-01, 3.56123298e-01,
          3.56123298e-01, 2.02986598e-01, 2.99963683e-01, 3.22982043e-01,
          3.56123298e-01, 3.56123298e-01, 3.56123298e-01, 3.56123298e-01,
          4.03457940e-01, 4.03457940e-01, 1.50062457e-01, 3.12701613e-01,
          2.41553530e-01, 5.85575737e-02, 4.03457940e-01, 4.03457940e-01,
          4.03457940e-01, 3.67285132e-01, 3.67285132e-01, 3.67285132e-01,
          3.64044994e-01, 7.27565065e-02, 3.67285132e-01, 3.62747967e-01,
          2.64431536e-01, 3.42643529e-01, 3.82446647e-01, 8.74793157e-02,
          4.50320691e-02, 4.64179665e-01, 4.64179665e-01, 4.64179665e-01,
          1.52991861e-02, 1.21762723e-01, 4.21864063e-01, 2.19836012e-01,
          8.76446739e-02, 1.49784591e-02, 4.97180700e-01, 4.97180700e-01,
          1.76765859e-01, 6.64643422e-02, 4.01958942e-01, 4.97180700e-01,
          4.65916127e-01, 3.71194899e-01, 1.30848428e-02, 1.54814646e-01,
          4.65916127e-01, 4.65916127e-01, 1.06991813e-01, 5.94046339e-02,
          4.08916056e-01 ]
      - [ 2.98244178e-01, 4.25565004e-01, 4.25565004e-01, 2.73803063e-02,
          2.21660845e-02, 5.49507421e-03, 4.25565004e-01, 4.25565004e-01,
          4.25565004e-01, 2.29934931e-01, 4.13156569e-01, 4.13156569e-01,
          4.13156569e-01, 2.66211957e-01, 1.21756651e-01, 4.13156569e-01,
          4.13156569e-01, 6.17857315e-02, 3.96730959e-01, 3.96730959e-01,
          3.96730959e-01, 3.96730959e-01, 3.17207974e-04, 1.29551709e-05,
          2.27296904e-01, 3.96730959e-01, 3.96730959e-01, 2.27630381e-02,
          2.70128697e-01, 3.83883536e-01, 4.40056175e-01, 1.14019569e-02,
          4.71425615e-03, 4.40056175e-01, 4.40056175e-01, 4.40056175e-01,
          5.62492609e-01, 2.86512654e-02, 1.25408918e-01, 1.41773134e-01,
          1.25271399e-02, 1.16754044e-03, 9.15576890e-02, 5.62492609e-01,
          5.62492609e-01, 4.45073456e-01, 4.45073456e-01, 4.45073456e-01,
          2.91420400e-01, 4.45571635e-03, 1.29148200e-01, 4.45073456e-01,
          2.58834422e-01, 1.85936421e-01, 1.34750186e-02, 9.73931456e-04,
          3.35782409e-01, 7.93655932e-01, 2.42211625e-01, 7.22508645e-03,
          1.56829376e-02, 2.31803045e-01, 3.69540006e-01, 4.07946765e-01,
          4.59412811e-03, 3.28102224e-02, 4.54077691e-01, 4.54077691e-01,
          4.47273076e-01, 4.20555647e-04, 9.66081843e-02, 4.54077691e-01,
          4.91794407e-01, 2.87364781e-01, 1.63361773e-01, 6.71331286e-02,
          4.91794407e-01, 4.91794407e-01, 2.33507782e-01, 2.78936047e-02,
          3.16901386e-01 ]
      - [ 4.22709465e-01, 4.22709465e-01, 2.74954915e-01, 3.59934848e-03,
          9.26883984e-03, 1.63284361e-01, 4.22709465e-01, 4.22709465e-01,
          4.22709465e-01, 4.20435011e-01, 4.20435011e-01, 3.33925217e-01,
          2.09883437e-03, 1.69617143e-02, 1.31881069e-02, 4.20435011e-01,
          4.20435011e-01, 4.20435011e-01, 4.32325691e-01, 4.32325691e-01,
          4.32325691e-01, 1.53891295e-01, 1.16742710e-02, 1.08764994e-04,
          1.93222553e-01, 4.32325691e-01, 4.32325691e-01, 3.71325523e-01,
          3.71325523e-01, 3.71325523e-01, 2.17188284e-01, 2.53905922e-01,
          2.39490002e-01, 3.71325523e-01, 3.71325523e-01, 3.71325523e-01,
          2.56727993e-01, 3.97680879e-01, 3.97680879e-01, 1.98613629e-01,
          2.62345612e-01, 2.83495486e-01, 3.97680879e-01, 3.97680879e-01,
          3.29962522e-01, 3.93496841e-01, 3.93496841e-01, 3.93496841e-01,
          1.42829627e-01, 1.48737475e-01, 2.91872263e-01, 3.93496841e-01,
          3.93496841e-01, 3.06850970e-01, 2.81139433e-01, 1.82272136e-01,
          1.97207332e-01, 4.65120226e-01, 4.65120226e-01, 4.65120226e-01,
          1.64442137e-01, 2.05174342e-01, 3.55039358e-01, 1.43700674e-01,
          9.46331397e-02, 4.18088287e-01, 4.18088287e-01, 4.18088287e-01,
          4.18088287e-01, 4.01701391e-01, 2.65420169e-01, 1.87656686e-01,
          4.37092066e-01, 3.75541687e-01, 8.70603621e-02, 3.16134781e-01,
          4.48592186e-01, 4.48592186e-01, 2.27648869e-01, 1.15518175e-01,
          2.97117770e-01 ]
      - [ 4.22166258e-01, 4.22166258e-01, 3.09670687e-01, 2.92044668e-03,
          4.91197221e-03, 9.34469402e-02, 4.22166258e-01, 4.22166258e-01,
          4.22166258e-01, 4.14340168e-01, 4.14340168e-01, 3.70209634e-01,
          1.92524679e-03, 1.18338726e-02, 1.65238138e-02, 4.14340168e-01,
          4.14340168e-01, 4.14340168e-01, 4.12455231e-01, 4.12455231e-01,
          4.12455231e-01, 1.99827984e-01, 4.92643216e-04, 0.,
          3.24579000e-01, 4.12455231e-01, 4.12455231e-01, 3.56736422e-01,
          3.56736422e-01, 3.56736422e-01, 2.66683400e-01, 3.12319577e-01,
          2.53391117e-01, 3.56736422e-01, 3.56736422e-01, 3.56736422e-01,
          2.61367351e-01, 3.81517917e-01, 3.81517917e-01, 3.16207796e-01,
          2.09607825e-01, 3.41503143e-01, 3.81517917e-01, 3.81517917e-01,
          2.91727066e-01, 3.95807117e-01, 3.95807117e-01, 3.95807117e-01,
          1.18460178e-01, 1.38714716e-01, 3.17270488e-01, 3.95807117e-01,
          3.95807117e-01, 2.80703485e-01, 2.23957539e-01, 1.86879277e-01,
          1.77231520e-01, 4.95603293e-01, 4.95603293e-01, 4.95603293e-01,
          1.64237380e-01, 1.61929742e-01, 2.97481656e-01, 1.01989165e-01,
          9.50654373e-02, 4.28137630e-01, 4.28137630e-01, 4.28137630e-01,
          4.28137630e-01, 4.05217946e-01, 2.36109301e-01, 1.52076960e-01,
          3.69995832e-01, 3.92441750e-01, 8.80582929e-02, 3.54119837e-01,
          4.70283985e-01, 4.70283985e-01, 2.82674670e-01, 1.14786439e-01,
          1.89275220e-01 ]
      - [ 6.89692616e-01, 6.89692616e-01, 4.31425811e-04, 0.,
          5.29130809e-02, 1.66559964e-01, 9.70746055e-02, 1.96282957e-02,
          3.75801213e-02, 5.14818788e-01, 5.14818788e-01, 6.90512955e-02,
          1.12935141e-01, 4.52338010e-01, 3.10595691e-01, 2.22914279e-01,
          1.60229504e-01, 2.66112059e-01, 4.90105540e-01, 1.13063022e-01,
          7.83271939e-02, 7.42454231e-02, 9.78558064e-02, 1.68739893e-02,
          4.90105540e-01, 4.90105540e-01, 4.90105540e-01, 4.96798813e-01,
          4.96798813e-01, 2.03882635e-01, 2.77470499e-01, 4.96798813e-01,
          1.54905364e-01, 2.44821742e-01, 1.60927519e-01, 1.61932096e-01,
          3.68492246e-01, 3.68492246e-01, 2.02729672e-01, 3.15194696e-01,
          3.68492246e-01, 3.68492246e-01, 3.37002128e-01, 2.51730740e-01,
          3.68492246e-01, 3.27512622e-01, 1.93317652e-01, 1.65010795e-01,
          1.13644890e-01, 4.08303022e-01, 3.79862547e-01, 4.08303022e-01,
          4.08303022e-01, 4.08303022e-01, 3.28440107e-02, 8.61138701e-02,
          1.56472772e-01, 5.46110690e-01, 8.11447084e-01, 2.27094516e-02,
          5.84282633e-03, 1.86023880e-02, 3.66717428e-02, 1.50528729e-01,
          1.70389023e-02, 5.41967154e-01, 5.41967154e-01, 5.41967154e-01,
          2.44681656e-01, 1.32284626e-01, 1.89453121e-02, 1.12809516e-01,
          3.13447006e-02, 4.76809824e-03, 2.28899240e-01, 4.47582304e-01,
          4.88855422e-01, 4.88855422e-01, 4.88855422e-01, 7.40403384e-02,
          1.37719080e-01 ]
      - [ 5.86716354e-01, 5.86716354e-01, 1.83131755e-03, 7.66835874e-04,
          3.02714463e-02, 5.51980674e-01, 7.53015140e-03, 0.,
          3.10833706e-03, 5.30264080e-01, 5.30264080e-01, 2.69529939e-01,
          9.06623080e-02, 2.18815833e-01, 5.30264080e-01, 1.31882876e-01,
          5.62661029e-02, 4.31179926e-02, 2.97959715e-01, 3.61728311e-01,
          4.57219183e-01, 1.38512388e-01, 1.63421914e-01, 2.59160340e-01,
          4.57219183e-01, 4.57219183e-01, 1.88682839e-01, 4.29715872e-01,
          4.29715872e-01, 5.19128442e-02, 1.08956039e-01, 4.29715872e-01,
          4.29715872e-01, 3.03590029e-01, 1.05315126e-01, 3.73175621e-01,
          3.98099959e-01, 3.98099959e-01, 3.98099959e-01, 7.85479173e-02,
          3.98099959e-01, 3.98099959e-01, 1.93812206e-01, 3.72621678e-02,
          3.98099959e-01, 4.00457531e-01, 4.00746673e-01, 4.00746673e-01,
          5.07172085e-02, 1.32726371e-01, 1.11590266e-01, 4.00746673e-01,
          4.00746673e-01, 4.00746673e-01, 2.96861678e-01, 1.30266950e-01,
          9.37358364e-02, 5.80403388e-01, 6.74285114e-01, 9.88358930e-02,
          9.51031074e-02, 6.16968498e-02, 2.55416840e-01, 3.26516360e-01,
          3.19222003e-01, 4.52194184e-01, 4.52194184e-01, 4.52194184e-01,
          2.39686176e-01, 1.19945019e-01, 1.74663179e-02, 3.18414181e-01,
          2.74217248e-01, 2.95151621e-01, 3.75004143e-01, 3.23639393e-01,
          3.75004143e-01, 3.75004143e-01, 3.75004143e-01, 1.61434174e-01,
          3.75004143e-01 ]
      - [ 6.87681019e-01, 6.87681019e-01, 6.67791901e-05, 0.,
          1.21845221e-02, 2.13868424e-01, 3.10825370e-02, 0.,
          2.16867309e-02, 5.52145481e-01, 5.52145481e-01, 6.48165494e-02,
          1.30776137e-01, 3.67517412e-01, 3.69105428e-01, 1.16920300e-01,
          7.72476345e-02, 2.69273251e-01, 4.88857746e-01, 1.01875432e-01,
          8.29121619e-02, 8.61286744e-02, 9.19956937e-02, 7.78166652e-02,
          4.88857746e-01, 4.88857746e-01, 4.88857746e-01, 4.82637882e-01,
          4.82637882e-01, 1.19063586e-01, 2.91559130e-01, 4.82637882e-01,
          2.69447327e-01, 2.88042396e-01, 9.29979607e-02, 1.81548432e-01,
          3.65322649e-01, 3.65322649e-01, 2.29889810e-01, 3.42693061e-01,
          3.65322649e-01, 3.65322649e-01, 3.65322649e-01, 1.59054682e-01,
          3.65322649e-01, 2.80930012e-01, 2.71017492e-01, 3.06667805e-01,
          1.60531178e-01, 2.04601377e-01, 2.00156793e-01, 4.62338299e-01,
          4.62338299e-01, 4.62338299e-01, 7.72225931e-02, 1.54244214e-01,
          1.15415119e-01, 6.86783552e-01, 6.86783552e-01, 2.56088213e-03,
          3.68681699e-02, 2.28718482e-02, 6.95453659e-02, 3.12010616e-01,
          3.90136093e-02, 5.79738524e-03, 6.37564123e-01, 6.37564123e-01,
          1.50011510e-01, 3.22440602e-02, 3.14097740e-02, 2.39212349e-01,
          7.13250637e-02, 2.01689880e-02, 4.89869667e-03, 4.99431133e-01,
          4.99431133e-01, 4.99431133e-01, 2.57636249e-01, 2.46871307e-01,
          3.37457478e-01 ]
      - [ 5.35514116e-01, 5.35514116e-01, 5.96083291e-02, 4.85870987e-02,
          1.15528427e-01, 4.15640563e-01, 3.30738097e-01, 2.65737325e-01,
          2.21539095e-01, 4.64013547e-01, 4.64013547e-01, 1.14880562e-01,
          1.30805090e-01, 3.75531584e-01, 4.64013547e-01, 1.98152706e-01,
          2.92164445e-01, 2.31264949e-01, 4.76730108e-01, 2.07293481e-01,
          1.25714526e-01, 1.03967339e-01, 1.24608003e-01, 3.22617181e-02,
          4.76730108e-01, 4.76730108e-01, 4.76730108e-01, 4.20428127e-01,
          4.20428127e-01, 1.07031696e-01, 3.35269511e-01, 4.20428127e-01,
          4.20428127e-01, 3.04008931e-01, 1.98799029e-01, 1.81540310e-01,
          3.77770156e-01, 3.77770156e-01, 3.18571180e-01, 2.77976990e-01,
          3.77770156e-01, 3.77770156e-01, 2.37302005e-01, 2.18181878e-01,
          3.77770156e-01, 3.80930901e-01, 2.02758834e-01, 2.60206461e-01,
          1.29327595e-01, 3.80930901e-01, 3.80930901e-01, 3.80930901e-01,
          3.80930901e-01, 3.80930901e-01, 2.20714390e-01, 1.02166630e-01,
          1.28641009e-01, 5.48566401e-01, 5.48566401e-01, 5.48566401e-01,
          4.61393967e-02, 6.30343333e-02, 9.97144058e-02, 3.27293038e-01,
          4.19632904e-02, 2.51181573e-01, 5.41513383e-01, 5.41513383e-01,
          4.10273433e-01, 1.05165772e-01, 3.42696048e-02, 2.35767528e-01,
          1.54517427e-01, 2.74025742e-02, 1.11320861e-01, 4.69345659e-01,
          4.75897163e-01, 4.75897163e-01, 4.75897163e-01, 1.09189756e-01,
          2.15837181e-01 ]
      - [ 6.89884305e-01, 6.89884305e-01, 0., 0., 5.85382208e-02,
          1.89677149e-01, 1.64171085e-02, 2.64792540e-03, 3.93929519e-02,
          5.35941899e-01, 5.35941899e-01, 6.49516359e-02, 8.24027434e-02,
          4.18061048e-01, 4.05027241e-01, 8.13640058e-02, 1.43205434e-01,
          2.07897365e-01, 4.82648849e-01, 1.11403443e-01, 1.13730527e-01,
          1.03971183e-01, 1.58015728e-01, 4.74898219e-02, 4.82648849e-01,
          4.82648849e-01, 4.82648849e-01, 4.74309772e-01, 4.74309772e-01,
          1.18743241e-01, 2.37621173e-01, 4.74309772e-01, 3.19222480e-01,
          3.22463721e-01, 1.29483163e-01, 1.64735407e-01, 3.96566808e-01,
          3.96566808e-01, 2.36178398e-01, 2.37100810e-01, 3.96566808e-01,
          3.96566808e-01, 2.82798201e-01, 1.33192942e-01, 3.96566808e-01,
          3.97282451e-01, 2.90207714e-01, 3.80616695e-01, 1.72475919e-01,
          2.79643238e-01, 1.66313067e-01, 3.97282451e-01, 3.97282451e-01,
          3.97282451e-01, 2.15875670e-01, 1.25996679e-01, 1.55390352e-01,
          6.12909675e-01, 6.12909675e-01, 2.01058000e-01, 2.50678211e-01,
          1.90229431e-01, 1.28409743e-01, 3.97969902e-01, 4.02575247e-02,
          5.07238880e-02, 5.68655550e-01, 5.68655550e-01, 2.79784560e-01,
          3.73700447e-02, 4.04214002e-02, 3.22024852e-01, 2.38078758e-01,
          9.28394273e-02, 1.29965007e-01, 4.65376616e-01, 4.65376616e-01,
          4.65376616e-01, 2.60565132e-01, 2.48636872e-01, 3.65676612e-01 ]
      - [ 4.79713738e-01, 4.79713738e-01, 0., 0., 1.30285457e-01,
          4.47197884e-01, 3.91731054e-01, 2.90605396e-01, 2.83007473e-01,
          4.85680789e-01, 4.85680789e-01, 1.88605770e-01, 1.40105709e-01,
          2.25593567e-01, 4.85680789e-01, 2.58839250e-01, 1.91445202e-01,
          2.78834105e-01, 4.34836060e-01, 2.73149043e-01, 3.27055663e-01,
          1.50937065e-01, 1.18531018e-01, 1.44635409e-01, 4.34836060e-01,
          4.34836060e-01, 4.34836060e-01, 4.51636165e-01, 4.51636165e-01,
          7.31199011e-02, 6.22107387e-02, 4.51636165e-01, 4.51636165e-01,
          2.98372090e-01, 1.61611065e-01, 2.35004544e-01, 3.86131942e-01,
          3.86131942e-01, 3.86131942e-01, 1.85969070e-01, 3.86131942e-01,
          3.86131942e-01, 2.56543845e-01, 1.75364941e-01, 3.45689237e-01,
          3.73843402e-01, 1.80015266e-01, 3.59375417e-01, 1.06109910e-01,
          3.73843402e-01, 3.53065610e-01, 3.73843402e-01, 3.73843402e-01,
          3.73843402e-01, 3.68924618e-01, 1.65655866e-01, 1.46258652e-01,
          2.86578774e-01, 7.72800148e-01, 2.38102064e-01, 1.01937681e-01,
          9.81188267e-02, 2.26471916e-01, 4.76099789e-01, 5.98348342e-02,
          1.55653208e-01, 4.83569205e-01, 4.83569205e-01, 4.83569205e-01,
          2.81294528e-02, 2.92644836e-02, 1.93715855e-01, 2.20480159e-01,
          2.47892812e-02, 8.04211050e-02, 3.89522940e-01, 5.53371966e-01,
          5.53371966e-01, 1.83775559e-01, 1.46178126e-01, 3.45643848e-01 ]
      - [ 5.73692381e-01, 5.73692381e-01, 4.21700941e-04, 7.42715711e-05,
          8.94364808e-03, 5.73692381e-01, 8.25676247e-02, 0.,
          2.19080201e-03, 3.87396365e-01, 3.87396365e-01, 3.87396365e-01,
          1.39636144e-01, 2.49306068e-01, 3.87396365e-01, 3.87396365e-01,
          3.27439249e-01, 2.38499448e-01, 2.77319491e-01, 1.01597011e-01,
          3.24287653e-01, 6.35158420e-02, 7.81116188e-02, 3.00634094e-02,
          5.45187533e-01, 5.45187533e-01, 4.43471253e-01, 4.36983496e-01,
          4.36983496e-01, 8.89080912e-02, 1.51691318e-01, 4.36983496e-01,
          4.36983496e-01, 2.85161972e-01, 1.31669179e-01, 3.19762021e-01,
          3.64862442e-01, 3.64862442e-01, 3.64862442e-01, 1.04779631e-01,
          3.64862442e-01, 3.64862442e-01, 3.64862442e-01, 2.31308892e-01,
          3.64862442e-01, 4.06859130e-01, 1.51588559e-01, 3.33398670e-01,
          2.20429078e-02, 4.06859130e-01, 1.83423609e-01, 4.06859130e-01,
          4.06859130e-01, 4.06859130e-01, 3.80655527e-01, 1.30804539e-01,
          1.26521707e-01, 5.73293209e-01, 5.73293209e-01, 2.73407489e-01,
          6.67168498e-02, 8.96570459e-02, 2.67745972e-01, 2.83316791e-01,
          1.18241847e-01, 4.16732371e-01, 4.16732371e-01, 4.16732371e-01,
          4.16732371e-01, 4.00126100e-01, 7.38431215e-02, 2.03397378e-01,
          2.30940640e-01, 4.43226881e-02, 2.94581026e-01, 1.69842839e-01,
          4.78321642e-01, 4.78321642e-01, 4.78321642e-01, 2.30738506e-01,
          2.91006356e-01 ]
      - [ 6.28025472e-01, 6.28025472e-01, 0., 0., 1.47848457e-01,
          4.27674502e-01, 5.59589127e-03, 2.19225039e-04, 1.00833885e-02,
          5.03313065e-01, 5.03313065e-01, 2.04726055e-01, 9.26832557e-02,
          3.86355639e-01, 5.03313065e-01, 1.26247466e-01, 4.77549806e-02,
          1.30417183e-01, 4.58559811e-01, 2.49860495e-01, 2.81444043e-01,
          7.85429925e-02, 1.08660661e-01, 1.12284452e-01, 4.58559811e-01,
          4.58559811e-01, 4.38592583e-01, 3.94843638e-01, 3.94843638e-01,
          2.49438494e-01, 1.65957630e-01, 3.94843638e-01, 3.94843638e-01,
          3.44246477e-01, 9.09992158e-02, 3.94843638e-01, 4.00378942e-01,
          3.91262650e-01, 4.00378942e-01, 1.58956125e-01, 4.00378942e-01,
          4.00378942e-01, 1.05368190e-01, 7.09071234e-02, 4.00378942e-01,
          3.55301440e-01, 3.55301440e-01, 3.55301440e-01, 2.65278161e-01,
          3.55301440e-01, 2.05921933e-01, 3.55301440e-01, 3.55301440e-01,
          3.55301440e-01, 2.94786155e-01, 8.43385383e-02, 2.06304222e-01,
          4.33755338e-01, 7.56912827e-01, 3.67776006e-02, 1.36204302e-01,
          7.57497773e-02, 2.63000339e-01, 3.19742382e-01, 4.63752076e-02,
          3.24235201e-01, 5.18799305e-01, 5.18799305e-01, 1.16815582e-01,
          4.55584638e-02, 1.07570194e-01, 4.68728304e-01, 3.66078824e-01,
          1.95606723e-01, 2.63523340e-01, 3.80000442e-01, 3.80000442e-01,
          3.80000442e-01, 3.80000442e-01, 1.80226758e-01, 3.80000442e-01 ]
      - [ 5.99668384e-01, 5.99668384e-01, 0., 0., 1.72907129e-01,
          4.94761884e-01, 6.84422813e-03, 6.64336476e-05, 8.65757745e-03,
          4.96069670e-01, 4.96069670e-01, 2.70151287e-01, 5.38391434e-02,
          3.86425793e-01, 4.96069670e-01, 8.74819830e-02, 6.79013729e-02,
          1.39000684e-01, 4.61576074e-01, 2.34351918e-01, 2.98942566e-01,
          4.21724096e-02, 1.00297838e-01, 1.51969746e-01, 4.61576074e-01,
          4.61576074e-01, 4.20727700e-01, 4.01887566e-01, 4.01887566e-01,
          1.64005280e-01, 3.16292644e-01, 4.01887566e-01, 4.01887566e-01,
          1.80787519e-01, 1.69688180e-01, 4.01887566e-01, 4.14689869e-01,
          3.26922029e-01, 4.14689869e-01, 1.28756300e-01, 4.14689869e-01,
          4.14689869e-01, 8.26816484e-02, 7.56728426e-02, 4.14689869e-01,
          3.59682977e-01, 2.60442436e-01, 3.59682977e-01, 3.12903970e-01,
          3.59682977e-01, 2.33315676e-01, 3.59682977e-01, 3.59682977e-01,
          3.59682977e-01, 3.82623792e-01, 2.64294688e-02, 1.03545919e-01,
          4.14940119e-01, 6.54299855e-01, 3.34333889e-02, 5.52438125e-02,
          9.30080190e-02, 4.71744418e-01, 4.11177933e-01, 3.08991354e-02,
          3.50657970e-01, 4.78054672e-01, 4.78054672e-01, 1.01234764e-01,
          3.74392308e-02, 7.05918074e-02, 4.78054672e-01, 3.85961324e-01,
          9.59360227e-02, 2.85181791e-01, 3.85961324e-01, 3.85961324e-01,
          3.85961324e-01, 3.85961324e-01, 1.08696714e-01, 3.85961324e-01 ]
      - [ 5.85344732e-01, 4.72208589e-01, 1.99355647e-01, 4.10280451e-02,
          1.84793517e-01, 7.76211172e-02, 6.53849319e-02, 6.50334684e-03,
          5.85344732e-01, 4.45337594e-01, 2.96367615e-01, 2.49395937e-01,
          1.66272521e-01, 6.71474040e-02, 1.41640052e-01, 4.45337594e-01,
          4.45337594e-01, 4.45337594e-01, 4.07217950e-01, 3.97869200e-01,
          3.55710149e-01, 4.07217950e-01, 7.16468925e-03, 2.26352159e-02,
          2.17331305e-01, 4.07217950e-01, 4.07217950e-01, 3.51582348e-01,
          3.94375771e-01, 3.94375771e-01, 2.85879940e-01, 3.55645537e-01,
          3.53213459e-01, 3.94375771e-01, 2.42581040e-01, 1.18477248e-01,
          3.74323398e-01, 1.93845585e-01, 3.74323398e-01, 3.74323398e-01,
          2.59754568e-01, 2.24730358e-01, 3.74323398e-01, 3.74323398e-01,
          3.74323398e-01, 3.49545836e-01, 3.49545836e-01, 3.49545836e-01,
          3.49545836e-01, 1.38019517e-01, 3.49545836e-01, 3.49545836e-01,
          3.49545836e-01, 3.49545836e-01, 0., 1.10157393e-01,
          4.40025330e-01, 4.40025330e-01, 4.40025330e-01, 4.40025330e-01,
          4.40025330e-01, 1.23929463e-01, 0., 1.50041163e-01,
          2.89983563e-02, 3.73384088e-01, 5.84919155e-01, 5.84919155e-01,
          1.79854363e-01, 1.72798812e-01, 1.24879837e-01, 2.63301432e-01,
          3.17166388e-01, 1.10391043e-01, 3.02767921e-02, 9.14334059e-02,
          6.25895143e-01, 6.25895143e-01, 2.38300934e-01, 2.09504794e-02,
          1.76005036e-01 ]
      - [ 4.98148829e-01, 2.88028419e-01, 2.53210962e-01, 8.47625956e-02,
          4.11924064e-01, 4.24483985e-01, 2.12915629e-01, 1.80908702e-02,
          4.43940699e-01, 4.21982378e-01, 1.46942303e-01, 3.35715085e-01,
          1.28547862e-01, 1.13289051e-01, 4.03464437e-01, 4.21982378e-01,
          3.67611289e-01, 4.21982378e-01, 3.66046935e-01, 3.03784847e-01,
          3.66046935e-01, 3.66046935e-01, 2.65622586e-01, 1.71930790e-01,
          3.66046935e-01, 3.66046935e-01, 3.66046935e-01, 1.74401954e-01,
          4.25545096e-01, 4.45918769e-01, 1.01746753e-01, 2.50120550e-01,
          3.64154637e-01, 4.45918769e-01, 4.24749106e-01, 2.05156468e-02,
          7.95525908e-02, 2.71631688e-01, 5.07228971e-01, 1.90816030e-01,
          7.22307861e-02, 2.22199380e-01, 5.07228971e-01, 5.07228971e-01,
          2.27985606e-01, 3.83642167e-01, 3.83642167e-01, 5.95188141e-02,
          3.83642167e-01, 2.69902110e-01, 1.91545978e-01, 3.83642167e-01,
          3.83642167e-01, 3.83642167e-01, 3.19931016e-04, 1.27170235e-01,
          4.47581023e-01, 4.47581023e-01, 2.86157459e-01, 3.10089737e-01,
          4.47581023e-01, 4.47581023e-01, 3.19931016e-04, 1.27279714e-01,
          2.10703947e-02, 4.39417899e-01, 4.39417899e-01, 4.39417899e-01,
          2.21496355e-02, 1.14173740e-01, 4.39417899e-01, 4.39417899e-01,
          4.35016066e-01, 2.37587586e-01, 1.64165103e-04, 1.30089566e-01,
          4.35016066e-01, 4.35016066e-01, 3.54951590e-01, 1.98335186e-01,
          4.35016066e-01 ]
      - [ 4.29950386e-01, 3.54615659e-01, 3.72787595e-01, 1.23990089e-01,
          4.29950386e-01, 4.29950386e-01, 3.07840765e-01, 2.66636759e-02,
          2.56046683e-01, 4.14284855e-01, 1.59459263e-01, 3.80711883e-01,
          1.59706801e-01, 1.39797702e-01, 4.14284855e-01, 4.14284855e-01,
          3.25571239e-01, 3.99437785e-01, 1.22917801e-01, 2.14003325e-01,
          4.58077252e-01, 4.58077252e-01, 6.94125018e-04, 3.42916660e-02,
          3.99026185e-01, 4.58077252e-01, 3.80283684e-01, 1.37131969e-02,
          4.62347329e-01, 4.62347329e-01, 8.99290666e-02, 1.58963561e-01,
          3.26746374e-01, 4.62347329e-01, 4.62347329e-01, 3.70497466e-03,
          9.96430740e-02, 3.23462039e-01, 4.91643280e-01, 1.03708461e-01,
          3.10202315e-02, 1.75305948e-01, 4.91643280e-01, 4.91643280e-01,
          3.36071312e-01, 4.70893353e-01, 4.70893353e-01, 4.70893353e-01,
          2.00762361e-01, 3.34529264e-04, 1.52812093e-01, 4.70893353e-01,
          1.78687692e-01, 1.12907462e-01, 2.32104896e-04, 1.37306511e-01,
          4.65338051e-01, 4.65338051e-01, 1.45571843e-01, 3.45159531e-01,
          4.65338051e-01, 4.31897253e-01, 4.36000619e-03, 3.15331697e-01,
          3.77435498e-02, 4.19193357e-01, 4.19193357e-01, 4.19193357e-01,
          9.36141387e-02, 8.70333686e-02, 4.19193357e-01, 4.19193357e-01,
          4.27205563e-01, 4.27205563e-01, 3.23760100e-02, 5.09802178e-02,
          4.27205563e-01, 4.27205563e-01, 4.16070849e-01, 3.08373962e-02,
          2.96649605e-01 ]
      - [ 4.28116292e-01, 3.67664188e-01, 3.48122805e-01, 1.62693784e-01,
          4.28116292e-01, 4.28116292e-01, 3.03808481e-01, 3.11944373e-02,
          2.64129549e-01, 4.24966872e-01, 1.63095132e-01, 3.85419399e-01,
          2.14309439e-01, 1.07651569e-01, 4.24966872e-01, 4.24966872e-01,
          2.94226617e-01, 3.67055297e-01, 1.09601982e-01, 2.04071403e-01,
          4.73337322e-01, 4.73337322e-01, 5.70450025e-03, 1.61727630e-02,
          4.00168657e-01, 4.73337322e-01, 3.30213457e-01, 1.41388746e-02,
          4.62102473e-01, 4.62102473e-01, 7.55577609e-02, 1.71447784e-01,
          3.27210099e-01, 4.62102473e-01, 4.60824251e-01, 6.29326701e-03,
          9.99106914e-02, 3.52882326e-01, 5.06612241e-01, 6.19615503e-02,
          2.52330359e-02, 1.80870920e-01, 5.06612241e-01, 5.06612241e-01,
          2.30811700e-01, 3.75995278e-01, 5.00378430e-01, 5.00378430e-01,
          1.96310446e-01, 9.72751295e-04, 1.70112759e-01, 5.00378430e-01,
          1.82965875e-01, 3.92521024e-02, 2.64831644e-04, 1.78110123e-01,
          4.89061892e-01, 4.89061892e-01, 9.25290957e-02, 1.57044873e-01,
          4.89061892e-01, 4.60792810e-01, 1.71071831e-02, 3.97871763e-01,
          9.73354131e-02, 3.97871763e-01, 3.97871763e-01, 3.97871763e-01,
          1.56534880e-01, 1.10617697e-01, 3.97871763e-01, 3.97871763e-01,
          4.53138113e-01, 4.53138113e-01, 4.48911265e-02, 1.42984102e-02,
          3.55808377e-01, 4.53138113e-01, 4.53138113e-01, 3.66832651e-02,
          2.09695503e-01 ]
      - [ 4.94030297e-01, 1.96409389e-01, 1.97948426e-01, 7.81522691e-02,
          4.94030297e-01, 3.97743344e-01, 1.43657625e-01, 1.27547644e-02,
          4.94030297e-01, 4.11706507e-01, 1.87897652e-01, 3.00071687e-01,
          1.00959249e-01, 1.13290265e-01, 4.11706507e-01, 4.11706507e-01,
          4.11706507e-01, 4.11706507e-01, 3.96825284e-01, 3.96825284e-01,
          3.96825284e-01, 3.96825284e-01, 1.25671759e-01, 1.76850632e-02,
          1.87370569e-01, 3.96825284e-01, 3.96825284e-01, 2.43231386e-01,
          3.85854632e-01, 3.85854632e-01, 2.08279639e-01, 3.80578667e-01,
          3.85854632e-01, 3.85854632e-01, 3.85854632e-01, 6.59104064e-02,
          2.09720999e-01, 2.89063364e-01, 3.89212400e-01, 3.31762075e-01,
          1.03205197e-01, 3.76707643e-01, 3.89212400e-01, 3.89212400e-01,
          3.89212400e-01, 3.80091757e-01, 3.80091757e-01, 3.80091757e-01,
          3.80091757e-01, 1.13059178e-01, 3.54189515e-01, 3.80091757e-01,
          2.97254533e-01, 2.17396408e-01, 1.93896980e-04, 1.44331440e-01,
          4.11014318e-01, 4.11014318e-01, 4.08898205e-01, 4.11014318e-01,
          4.11014318e-01, 3.63379091e-01, 9.44619533e-03, 2.64932185e-01,
          1.65404491e-02, 2.72070378e-01, 4.74431366e-01, 4.74431366e-01,
          7.68307969e-02, 6.19576834e-02, 4.07159925e-01, 4.74431366e-01,
          4.81573582e-01, 3.92295688e-01, 4.41451743e-02, 4.26431932e-02,
          4.81573582e-01, 4.81573582e-01, 2.15869382e-01, 1.79821290e-02,
          3.08001071e-01 ]
      - [ 4.25708264e-01, 4.25708264e-01, 2.73038328e-01, 5.70633970e-02,
          3.25293005e-01, 1.58914357e-01, 4.25708264e-01, 2.48921707e-01,
          4.25708264e-01, 4.44359928e-01, 2.76620924e-01, 2.62939245e-01,
          1.36273876e-01, 2.60056823e-01, 4.71469089e-02, 4.44359928e-01,
          4.11235809e-01, 4.44359928e-01, 2.21606404e-01, 4.72718000e-01,
          4.72718000e-01, 1.26488462e-01, 1.25734895e-01, 6.17894766e-05,
          1.43217191e-01, 4.72718000e-01, 4.72718000e-01, 4.02939409e-01,
          4.02939409e-01, 4.02939409e-01, 2.15518683e-01, 4.02939409e-01,
          1.85736671e-01, 4.02939409e-01, 2.59906828e-01, 1.88880250e-01,
          3.42123389e-01, 3.42123389e-01, 3.42123389e-01, 3.42123389e-01,
          3.42123389e-01, 2.45345443e-01, 3.42123389e-01, 3.42123389e-01,
          3.42123389e-01, 2.06094593e-01, 3.88080686e-01, 3.88080686e-01,
          1.44964650e-01, 1.70275420e-01, 3.88080686e-01, 3.88080686e-01,
          3.88080686e-01, 3.88080686e-01, 3.68953258e-01, 1.12201564e-01,
          3.70112956e-01, 3.70112956e-01, 3.70112956e-01, 1.60265312e-01,
          3.70112956e-01, 3.70112956e-01, 3.70112956e-01, 4.12057489e-01,
          1.08252205e-01, 2.33528256e-01, 4.12057489e-01, 4.12057489e-01,
          4.12057489e-01, 1.20060034e-01, 2.57407010e-01, 4.12057489e-01,
          3.92033398e-01, 3.92033398e-01, 3.92033398e-01, 2.40007713e-02,
          3.92033398e-01, 3.92033398e-01, 3.69126529e-01, 3.88711840e-02,
          2.98816472e-01 ]
      - [ 4.13437039e-01, 4.03538942e-01, 1.61227405e-01, 5.90774380e-02,
          4.13437039e-01, 1.67854562e-01, 4.13437039e-01, 3.02730888e-01,
          4.13437039e-01, 4.53333855e-01, 1.91068172e-01, 2.15182766e-01,
          1.82179928e-01, 4.53333855e-01, 1.26527488e-01, 3.66357297e-01,
          3.35722983e-01, 4.53333855e-01, 2.22038418e-01, 3.00780356e-01,
          4.26951319e-01, 2.86207825e-01, 4.26951319e-01, 1.07930573e-02,
          2.11621985e-01, 4.26951319e-01, 4.26951319e-01, 3.88717085e-01,
          3.88717085e-01, 3.88717085e-01, 3.06210548e-01, 3.88717085e-01,
          2.36252308e-01, 3.88717085e-01, 2.53303438e-01, 1.63918182e-01,
          3.33282501e-01, 3.33282501e-01, 3.33282501e-01, 3.33282501e-01,
          3.33282501e-01, 3.28712881e-01, 3.33282501e-01, 3.33282501e-01,
          3.33282501e-01, 2.41427973e-01, 3.79050523e-01, 3.79050523e-01,
          2.01544791e-01, 1.87695354e-01, 3.79050523e-01, 3.79050523e-01,
          3.79050523e-01, 3.79050523e-01, 3.72009575e-01, 9.53076631e-02,
          3.72009575e-01, 3.72009575e-01, 3.72009575e-01, 1.35875404e-01,
          3.72009575e-01, 3.72009575e-01, 3.72009575e-01, 4.17982966e-01,
          1.07403390e-01, 2.31243804e-01, 4.17982966e-01, 4.17982966e-01,
          3.91922385e-01, 1.20846130e-01, 2.52526104e-01, 4.17982966e-01,
          3.76657128e-01, 3.76657128e-01, 3.76657128e-01, 3.18984613e-02,
          3.76657128e-01, 3.76657128e-01, 3.76657128e-01, 4.61024493e-02,
          3.76657128e-01 ]
      - [ 5.75048089e-01, 4.34003651e-01, 2.77439833e-01, 1.51545718e-01,
          2.78598815e-01, 2.67412066e-01, 2.49454752e-01, 1.87313277e-02,
          4.04443175e-01, 4.04284328e-01, 2.25675374e-01, 4.04284328e-01,
          2.41930038e-01, 6.06682524e-02, 2.56109297e-01, 4.04284328e-01,
          4.04284328e-01, 4.04284328e-01, 3.81854445e-01, 3.81854445e-01,
          3.81854445e-01, 3.81854445e-01, 8.77064886e-04, 1.78660303e-02,
          3.47833574e-01, 3.81854445e-01, 3.81854445e-01, 1.01371616e-01,
          3.30873549e-01, 4.45445597e-01, 3.32252979e-01, 1.91824436e-01,
          3.64999682e-01, 4.45445597e-01, 4.45445597e-01, 1.08719012e-02,
          3.45631599e-01, 1.43583924e-01, 3.98016006e-01, 3.98016006e-01,
          1.46640211e-01, 2.05813333e-01, 3.98016006e-01, 3.98016006e-01,
          3.98016006e-01, 3.73318195e-01, 3.73318195e-01, 3.73318195e-01,
          3.73318195e-01, 8.23762119e-02, 3.73318195e-01, 3.73318195e-01,
          2.99512655e-01, 2.52146453e-01, 0., 5.87155446e-02,
          4.22399908e-01, 4.22399908e-01, 4.22399908e-01, 4.22399908e-01,
          4.22399908e-01, 3.16581845e-01, 6.77919423e-04, 1.58011258e-01,
